tree
version=v4
num_class=1
num_tree_per_iteration=1
label_index=0
max_feature_idx=28
objective=binary sigmoid:1
feature_names=round_in_half ct_streak ct_score t_score score_diff kill_diff_lag1 kill_diff_lag2 kill_diff_lag3 kill_diff_lag5 damage_diff_lag1 damage_diff_lag2 damage_diff_lag3 damage_diff_lag5 equipment_diff_lag1 equipment_diff_lag2 equipment_diff_lag3 equipment_diff_lag5 ct_streak_lag1 ct_streak_lag2 ct_streak_lag3 ct_streak_lag5 score_diff_lag1 score_diff_lag2 score_diff_lag3 score_diff_lag5 kill_diff_roll3 kill_diff_roll5 damage_diff_roll3 damage_diff_roll5
feature_infos=[3:12] [-1:20] [0:45] [0:44] [-22:35] [-14:17] [-14:17] [-14:17] [-14:17] [-1092:1572] [-1092:1572] [-1092:1572] [-1092:1572] [-29000:31700] [-29000:31700] [-29000:30500] [-27850:31200] [-1:20] [-1:20] [-1:20] [-1:18] [-21:34] [-22:33] [-22:32] [-22:32] [-14:17] [-12.800000000000001:15.800000000000001] [-1092:1572] [-993.20000000000005:1448]
tree_sizes=3440 3452 3451 3435 3439 3442 3466 3458 3447 3444 3454 3435 3451 3438 3457 3467 3465 3458 3438 3442 3462 3454 3455 3463 3456 3437 3436 3438 3452 3451 3446 3477 3450 3465 3462 3433 3469 3467 3462 3469 3451 3439 3451 3448 3420 3460 3464 3453 3446 3457 3440 3441 3454 3434 3440 3451 3451 3457 3432 3457 3444 3447 3462 3456 3455 3449 3443 3443 3449 3449 3460 3438 3462 3439 3438

Tree=0
num_leaves=31
num_cat=0
split_feature=9 17 13 25 13 13 0 18 5 0 0 10 4 0 5 14 0 5 15 9 26 13 9 2 2 5 10 1 1 13
split_gain=1017.48 63.0749 73.6645 45.5584 53.3683 57.1419 33.396 33.7943 26.607 23.7006 20.4228 19.9905 19.6788 19.3121 16.2723 16.2189 15.536 14.6808 13.4692 13.1736 12.9365 12.8567 12.5741 11.4438 11.1068 11.104 11.0487 10.8255 10.472 10.1864
threshold=31.500000000000004 -1.0000000180025095e-35 17325.000000000004 1.1666666666666667 -13574.999999999998 325.00000000000006 3.5000000000000004 1.0000000180025095e-35 2.5000000000000004 9.5000000000000018 3.5000000000000004 -110.49999999999999 3.5000000000000004 4.5000000000000009 -1.4999999999999998 8475.0000000000018 5.5000000000000009 5.5000000000000009 16725.000000000004 -193.49999999999997 -0.89999999999999991 17025.000000000004 -569.99999999999989 17.500000000000004 1.0000000180025095e-35 -3.4999999999999996 287.50000000000006 3.5000000000000004 -1.0000000180025095e-35 1425.0000000000002
decision_type=2 2 2 2 2 2 2 2 2 2 2 2 2 2 2 2 2 2 2 2 2 2 2 2 2 2 2 2 2 2
left_child=3 13 8 4 15 6 12 19 26 11 17 -10 -6 24 16 22 23 -4 -15 -8 -16 -22 -1 -7 -2 -5 -3 -13 -9 -26
right_child=1 2 10 25 5 14 7 28 9 -11 -12 27 -14 18 20 -17 -18 -19 -20 -21 21 -23 -24 -25 29 -27 -28 -29 -30 -31
leaf_value=-0.079358469778601087 -0.020391100274979444 0.03382280860957599 -0.0075029308244373757 -0.044912943343412108 -0.065430267033781714 -0.041574031675612126 -0.03618064290367539 -0.05954754938196604 0.025127570920798675 0.037508286120784752 0.028666603683761879 0.068038123800077371 0.00397748127427551 0.014114497907079679 -0.021002206332460166 -0.03935721327322033 -0.014136737400978936 0.075863797312930817 0.06536305729511141 -0.01480287055228347 0.007661532108889332 -0.03935721327322033 0.00045337320608285735 0.0086835114513791299 0.054002362661540744 0.0058633306845557445 0.052274624309806894 0.048557636189154992 0.00096663401042964593 0.019587727715399711
leaf_weight=4.999842941761016 7.2497722655534735 305.24041159451008 64.747966095805168 11.249646618962286 110.74652116000652 101.49681171774864 106.24666251242161 92.247102275490761 36.248861327767372 144.24546886980534 368.98840910196304 329.73964200913906 11.249646618962286 396.23755313456059 78.997518479824066 28.999089062213898 284.49106338620186 5.7498193830251685 13.249583795666693 223.99296379089355 159.24499769508839 15.999497413635252 380.23805572092533 12.749599501490591 71.497754067182541 250.99211567640305 110.49652901291847 90.997141540050507 7.7497565597295752 30.749034091830254
leaf_count=20 29 1221 259 45 443 406 425 369 145 577 1476 1319 45 1585 316 116 1138 23 53 896 637 64 1521 51 286 1004 442 364 31 123
internal_value=0.0106638 0.0357274 0.0410607 -0.0156485 -0.0187792 -0.0241006 -0.0359393 -0.0293918 0.0484528 0.055178 0.0239554 0.0607553 -0.05903 0.0207603 -0.0140884 -0.00329694 -0.0203911 -0.000703517 0.0157727 -0.0216807 -0.0042037 0.00336881 -0.000582472 -0.0359654 0.0394124 0.00368513 0.038727 0.0638249 -0.0548577 0.0436527
internal_weight=3857.13 1975.44 1456.45 1881.69 1619.45 1205.21 552.233 430.236 1016.97 601.231 439.486 456.986 121.996 518.984 652.979 414.237 398.737 70.4978 409.487 330.24 254.242 175.244 385.238 114.246 109.497 262.242 415.737 420.737 99.9969 102.247
internal_count=15429 7902 5826 7527 6478 4821 2209 1721 4068 2405 1758 1828 488 2076 2612 1657 1595 282 1638 1321 1017 701 1541 457 438 1049 1663 1683 400 409
is_linear=0
shrinkage=1


Tree=1
num_leaves=31
num_cat=0
split_feature=9 17 13 25 13 13 0 5 7 0 5 0 10 0 4 13 0 25 5 9 28 12 10 24 4 19 5 25 9 13
split_gain=918.535 56.986 66.5776 41.5815 54.4125 40.0558 27.8082 24.0737 22.127 21.451 20.1292 18.4347 18.0865 17.4425 15.4196 14.7891 14.5413 13.3841 13.2617 12.5619 12.2789 16.4809 13.2425 10.5193 11.5848 10.5185 10.6516 12.8301 10.0653 13.9824
threshold=31.500000000000004 -1.0000000180025095e-35 17325.000000000004 0.58333333333333337 -13574.999999999998 -2774.9999999999995 3.5000000000000004 2.5000000000000004 1.0000000180025095e-35 9.5000000000000018 -1.4999999999999998 3.5000000000000004 -110.49999999999999 4.5000000000000009 3.5000000000000004 -11024.999999999998 8.5000000000000018 -1.1666666666666663 5.5000000000000009 -569.99999999999989 -19.099999999999998 50.500000000000007 35.500000000000007 7.5000000000000009 -7.4999999999999991 3.5000000000000004 1.0000000180025095e-35 1.8333333333333337 346.50000000000006 1325.0000000000002
decision_type=2 2 2 2 2 2 2 2 2 2 2 2 2 2 2 2 2 2 2 2 2 2 2 2 2 2 2 2 2 2
left_child=3 13 7 4 17 6 14 25 15 12 16 18 -9 28 -6 -8 23 19 -4 -1 21 -15 -22 24 -7 26 27 -3 29 -2
right_child=1 2 11 -5 5 10 8 9 -10 -11 -12 -13 -14 20 -16 -17 -18 -19 -20 -21 22 -23 -24 -25 -26 -27 -28 -29 -30 -31
leaf_value=-0.086737023517514639 0.0331135239070754 -0.0081681787776997136 -0.017771824903245456 -0.011486807054156369 -0.078326031838907295 -0.012060859396771725 -0.003587646954514993 0.013228535581671755 -0.061270899655697611 0.024996679842999456 -0.017964727486904069 0.016591858698445063 0.05004046270315006 0.0016157926915238265 -0.0087703372060894038 -0.038556495437609355 -0.024104769531487314 -0.034115198039950452 0.061514440805634153 -0.0087344292960497786 0.020090906700513916 -0.038522762760660467 -0.011415597617650337 -0.0040621952699715358 -0.048376364841815359 0.0013449393933654985 0.031801012065834307 0.056653658739140592 0.069532314686164318 -0.0093490069259863067
leaf_weight=5.2420392781496039 70.452529639005661 35.238532021641731 64.749089181423187 412.46723893284798 89.154543042182922 24.243857607245445 40.991604298353195 36.24427855014801 83.450366601347923 144.19928057491779 269.22047902643681 368.92420828342438 420.31505860388279 182.24015544354916 8.7499655783176404 115.22972773015499 177.98114643990993 68.743899509310722 5.74173480272293 335.99552863836288 154.98159256577492 29.748517572879791 42.495847225189209 16.74873760342598 233.18113185465336 38.735745206475258 331.86855792999268 9.7444338947534543 12.244553625583647 26.747110113501549
leaf_count=21 282 141 259 1650 357 97 164 145 334 577 1077 1476 1683 729 35 461 712 275 23 1344 620 119 170 67 933 155 1328 39 49 107
internal_value=-0.000513789 0.023306 0.0283772 -0.0255145 -0.0294534 -0.0354411 -0.0496565 0.035408 -0.0404845 0.0418083 -0.0287888 0.0121153 0.0471181 0.00907929 -0.0721097 -0.0293809 -0.0352337 -0.0139875 -0.0113137 -0.00993269 0.00433997 -0.00401688 0.0133109 -0.0424581 -0.0449562 0.0261559 0.0287062 0.00587385 0.0268106 0.0214288
internal_weight=3856.07 1974.67 1455.76 1881.4 1468.93 1058.95 337.576 1016.35 239.672 600.759 721.375 439.415 456.559 518.91 97.9045 156.221 452.155 409.981 70.4908 341.238 409.466 211.989 197.477 274.174 257.425 415.587 376.852 44.983 109.444 97.1996
internal_count=15429 7902 5826 7527 5877 4237 1351 4068 959 2405 2886 1758 1828 2076 392 625 1809 1640 282 1365 1638 848 790 1097 1030 1663 1508 180 438 389
is_linear=0
shrinkage=0.05


Tree=2
num_leaves=31
num_cat=0
split_feature=5 1 13 25 13 0 12 5 25 13 5 5 13 22 14 13 2 14 0 0 1 3 2 6 27 11 19 16 14 0
split_gain=804.499 46.5644 63.6687 38.862 47.3489 46.2145 31.0963 28.3492 23.2432 19.6919 17.744 17.7296 25.177 17.6485 17.2323 16.5268 16.063 17.9948 15.453 15.4076 14.6608 14.7513 12.6912 12.6385 15.2105 13.4973 15.0495 12.2181 12.1452 10.7152
threshold=1.0000000180025095e-35 1.0000000180025095e-35 17325.000000000004 1.1666666666666667 -13574.999999999998 5.5000000000000009 60.500000000000007 -1.4999999999999998 3.1666666666666674 825.00000000000011 5.5000000000000009 2.5000000000000004 -4774.9999999999991 -2.4999999999999996 -1274.9999999999998 5275.0000000000009 8.5000000000000018 -2824.9999999999995 3.5000000000000004 4.5000000000000009 -1.0000000180025095e-35 11.500000000000002 8.5000000000000018 1.0000000180025095e-35 69.833333333333357 359.50000000000006 3.5000000000000004 -4324.9999999999991 8475.0000000000018 9.5000000000000018
decision_type=2 2 2 2 2 2 2 2 2 2 2 2 2 2 2 2 2 2 2 2 2 2 2 2 2 2 2 2 2 2
left_child=3 8 6 4 28 7 15 16 11 13 23 12 -2 -7 -4 -3 17 -6 -16 -13 21 -14 -9 24 -8 26 29 -26 -1 -25
right_child=1 2 14 -5 5 9 10 22 -10 -11 -12 19 20 -15 18 -17 -18 -19 -20 -21 -22 -23 -24 25 27 -27 -28 -29 -30 -31
leaf_value=-0.0093835192247728703 0.020718254977249925 0.034436834866559789 0.046378581510399308 -0.0054899471853593782 -0.039229408475116197 -0.02040545964916278 -0.02421936705275602 -0.034058945210713301 0.051392741152105362 -0.017289208947172709 0.061181725179159589 0.041791884055166421 -0.0042222345167090142 -0.042688663167812169 -0.013287362520070296 0.052633669726022458 -0.032555441253358908 -0.071550158921604143 0.013158847708466235 0.011761149489175976 -0.016617054086433228 0.060313631133093452 0.0047138669935710212 0.045900477490296798 0.070871169028398837 0.00084052828426416375 0.0038203854235711477 0.010711450010499959 -0.043083424470571917 0.020270963215698171
leaf_weight=386.69313786923885 99.157279178500175 255.74125644564629 32.979796797037125 258.95954708755016 62.385618403553963 157.88120664656162 28.724939659237862 135.78021401166916 33.190468311309814 452.33825571835041 30.674306869506836 53.152797028422356 26.73230829834938 203.24658837914467 66.21783846616745 243.66193537414074 62.669339448213577 139.05464425683022 333.08090795576572 217.42327223718166 163.9469131976366 13.24013204872608 24.989311024546623 129.94017317891121 9.7355976402759534 40.924999758601189 39.199581280350685 63.408954590559006 28.721111714839935 59.434574544429779
leaf_count=1547 397 1025 132 1036 250 632 115 544 133 1810 123 213 107 814 265 977 251 558 1333 870 656 53 100 521 39 164 157 254 115 238
internal_value=-0.000488416 0.0221934 0.0274178 -0.0235005 -0.0263207 -0.0312209 0.0349829 -0.0445861 0.0107112 -0.0242401 0.0246328 0.0083574 5.19388e-05 -0.0329467 0.0116422 0.0433152 -0.0546628 -0.0615405 0.00877313 0.0176605 -0.00999721 0.0171541 -0.0280323 0.0216139 0.00661116 0.0272849 0.0320196 0.0187188 -0.0117135 0.0378567
internal_weight=3853.29 1940.57 1333.72 1912.72 1653.76 1238.35 901.446 424.879 606.843 813.466 402.043 573.653 303.077 361.128 432.279 499.403 264.11 201.44 399.299 270.576 203.919 39.9724 160.77 371.369 101.869 269.499 228.574 73.1446 415.414 189.375
internal_count=15429 7772 5343 7657 6621 4959 3613 1703 2429 3256 1611 2296 1213 1446 1730 2002 1059 808 1598 1083 816 160 644 1488 408 1080 916 293 1662 759
is_linear=0
shrinkage=0.05


Tree=3
num_leaves=31
num_cat=0
split_feature=9 17 13 25 13 13 19 9 9 14 13 9 28 9 28 14 10 10 12 14 15 13 14 9 2 13 28 10 9 27
split_gain=755.546 46.5584 55.1852 34.4946 44.6419 34.1439 20.117 18.7472 18.1063 17.8856 18.062 17.102 16.6497 16.2549 15.209 14.8194 13.714 13.5387 13.4799 12.3949 12.3147 12.0489 11.2346 10.3243 9.9942 10.9214 12.0187 9.69245 9.61522 9.46421
threshold=31.500000000000004 -1.0000000180025095e-35 17325.000000000004 0.58333333333333337 -13574.999999999998 -2774.9999999999995 1.5000000000000002 193.50000000000003 -225.49999999999997 -2124.9999999999995 -11024.999999999998 527.00000000000011 -166.89999999999998 -94.499999999999986 -17.099999999999998 8625.0000000000018 287.50000000000006 13.500000000000002 50.500000000000007 17925.000000000004 -16124.999999999998 3975.0000000000005 -6274.9999999999991 -569.99999999999989 6.5000000000000009 1325.0000000000002 -85.708333333333329 61.500000000000007 47.500000000000007 164.50000000000003
decision_type=2 2 2 2 2 2 2 2 2 2 2 2 2 2 2 2 2 2 2 2 2 2 2 2 2 2 2 2 2 2
left_child=3 14 6 4 15 9 7 -3 -7 10 12 22 -6 20 18 23 28 -16 24 -13 -11 -9 -4 -1 -2 -26 -27 -25 -8 -5
right_child=1 2 11 29 5 8 16 21 -10 13 -12 19 -14 -15 17 -17 -18 -19 -20 -21 -22 -23 -24 27 25 26 -28 -29 -30 -31
leaf_value=-0.081875571402752201 -0.0019141503028933902 0.025988768053307926 0.047766069372553482 -0.015152627827252518 -0.065776791433064835 -0.040809956488725041 0.069499250933886647 0.033013901035884377 -0.021785791615591452 -0.019092806235052408 -0.038721251258754669 0.081953938178767449 0.038668761968652862 -0.033854415934596746 0.02403085967467301 -0.048596364726467278 0.037409034811079642 -0.0026852110376538031 -0.02754601049723204 -0.0040196506106049855 -0.065614653780505391 0.049035680619936524 0.0070763052941102862 -0.0083517610633806211 0.033815764135813949 0.032461526777262197 -0.049549373008763282 -0.078441725592006947 0.0096591248261365687 0.0016400635502217291
leaf_weight=4.96170550584793 166.15099754929543 282.45434215664864 17.712420403957367 295.09590019285679 4.988408729434016 161.11213053762913 6.9952290356159201 204.15721565485001 559.11217440664768 15.710073053836821 68.064656421542168 13.97489905357361 16.229916244745255 80.602646023035049 185.54622048139572 26.924024626612663 77.199227303266525 63.701798260211945 37.972923755645752 5.9889098405838004 150.47387535870075 275.96524167060852 401.424664452672 372.95155000686646 47.217260554432869 8.247379735112192 9.7471830248832685 4.9985510110855094 166.3640972673893 117.23853196203709
leaf_count=20 665 1133 71 1181 20 646 28 820 2240 63 273 56 65 324 743 108 310 255 152 24 606 1110 1607 1492 189 33 39 20 667 469
internal_value=-0.000464394 0.0211622 0.0257546 -0.0231543 -0.0267475 -0.0321821 0.0321713 0.0362099 -0.0260414 -0.045342 -0.0261649 0.0109494 0.0141137 -0.05228 0.00830181 -0.0127406 0.0198798 0.0172029 6.46143e-05 0.0561629 -0.0612167 0.0422229 0.00879582 -0.0102194 0.00459627 0.0211839 -0.0119616 -0.00927873 0.0120737 -0.010378
internal_weight=3849.28 1970.82 1452.24 1878.46 1466.13 1056.29 1013.14 762.577 720.224 336.07 89.283 439.101 21.2183 246.787 518.584 409.836 250.559 249.248 269.336 19.9638 166.184 480.122 419.137 382.912 231.363 65.2118 17.9946 377.95 173.359 412.334
internal_count=15429 7902 5826 7527 5877 4237 4068 3063 2886 1351 358 1758 85 993 2076 1640 1005 998 1078 80 669 1930 1678 1532 926 261 72 1512 695 1650
is_linear=0
shrinkage=0.05


Tree=4
num_leaves=31
num_cat=0
split_feature=9 1 14 27 0 14 5 14 28 12 10 23 11 9 27 0 10 1 10 11 14 9 27 18 10 16 3 16 9 27
split_gain=682.871 39.4757 28.7412 27.9064 26.3759 29.5266 22.0423 22.3304 21.535 19.3745 17.0432 14.9924 14.7725 14.1214 13.9386 11.747 11.5981 33.162 15.1189 10.8265 11.1377 10.4172 9.92579 11.2791 9.77618 9.57816 9.51046 9.40903 9.24133 13.4732
threshold=31.500000000000004 1.0000000180025095e-35 -1174.9999999999998 155.41666666666671 5.5000000000000009 -2824.9999999999995 5.5000000000000009 18175.000000000004 -15.099999999999998 97.500000000000014 77.500000000000014 6.5000000000000009 400.50000000000006 -56.499999999999993 288.41666666666669 9.5000000000000018 17.500000000000004 -1.0000000180025095e-35 299.50000000000006 -270.49999999999994 -17774.999999999996 47.500000000000007 -1.4999999999999998 1.0000000180025095e-35 -162.49999999999997 20725.000000000004 16.500000000000004 4625.0000000000009 -339.49999999999994 -225.83333333333329
decision_type=2 2 2 2 2 2 2 2 2 2 2 2 2 2 2 2 2 2 2 2 2 2 2 2 2 2 2 2 2 2
left_child=3 8 15 4 5 19 7 9 21 10 -4 24 -5 -13 16 26 -10 18 -18 -1 -21 -2 23 -6 -7 -11 -3 -17 -22 -30
right_child=1 2 6 12 22 11 -8 -9 14 25 -12 13 -14 -15 -16 27 17 -19 -20 20 28 -23 -24 -25 -26 -27 -28 -29 29 -31
leaf_value=-0.037190809541789473 -0.038924400559278816 0.053681451311168207 0.041535994560156379 0.0099349022967339939 -0.020137023666322224 -0.054670455509474671 0.05014502322163799 0.035306571932794212 0.022813421685309216 0.0115508018517638 0.0186019535032198 -0.023209994749514434 -0.026166871650394261 0.06113154988155331 0.049753499094947383 0.036783932788751882 0.06317759365812059 -0.011253266567515813 -0.029882347286114927 -0.037829387307774395 -0.035248102076907949 0.0022782523542757326 -0.012274183453017529 -0.038942981924964676 -0.037312215106079162 -0.010985743147711865 -0.0053667612770663181 -0.011469145297088574 0.056965174911191178 -0.0045146840104209485
leaf_weight=52.081477031111717 16.240818664431572 131.7579812258482 101.71001049876213 98.740928426384926 667.31094263494015 120.89393211901188 66.01896445453167 202.80773937702179 196.12801998853683 309.56149317324162 398.00074756145477 28.920393913984299 39.740068912506104 5.990949571132659 32.053226098418236 32.359550893306732 26.412574112415317 95.609244450926781 5.2284859716892234 31.636910110712051 21.191942930221558 276.7443204075098 357.22495952248573 90.548739314079285 246.51471142470837 55.616729810833931 7.191298469901084 14.688335061073301 9.7334380596876127 105.51583145558834
leaf_count=209 65 531 409 395 2675 488 266 816 786 1242 1599 116 159 24 129 130 106 383 21 127 85 1108 1431 364 992 223 29 59 39 423
internal_value=-0.000441798 0.0201329 0.0250964 -0.0220263 -0.0237479 -0.031993 0.0221077 0.0203741 0.0100305 0.0168726 0.0232699 -0.0400486 -0.00042527 -0.00873659 0.0183035 0.0433136 0.0151862 0.00343046 0.0478 -0.0172722 -0.0111001 -5.70244e-06 -0.0191452 -0.022384 -0.0430239 0.00811848 0.0506254 0.0217193 -0.00490233 0.00067763
internal_weight=3844.17 1968.13 1319.71 1876.05 1737.56 622.48 1133.72 1067.7 648.417 864.889 499.711 402.32 138.481 34.9113 355.432 185.997 323.378 127.25 31.6411 220.16 168.078 292.985 1115.08 757.86 367.409 365.178 138.949 47.0479 136.441 115.249
internal_count=15429 7902 5304 7527 6973 2503 4555 4289 2598 3473 2008 1620 554 140 1425 749 1296 510 127 883 674 1173 4470 3039 1480 1465 560 189 547 462
is_linear=0
shrinkage=0.05


Tree=5
num_leaves=31
num_cat=0
split_feature=9 1 13 0 13 13 14 14 25 18 13 13 13 9 24 11 9 9 9 11 25 13 16 16 0 11 6 0 12 9
split_gain=606.734 43.553 71.7016 37.4795 41.6218 35.9277 31.8567 26.3176 23.3543 19.4915 23.5438 16.7962 15.634 15.3073 14.3737 14.2053 13.6903 13.6406 13.3262 13.7401 13.2656 15.5692 13.1541 14.8546 12.5452 11.2721 11.0897 10.8042 14.233 10.6188
threshold=31.500000000000004 1.0000000180025095e-35 15475.000000000002 5.5000000000000009 -12224.999999999998 -1624.9999999999998 4825.0000000000009 -5924.9999999999991 0.58333333333333337 3.5000000000000004 4075.0000000000005 -13974.999999999998 1825.0000000000002 -168.49999999999997 -6.4999999999999991 -120.49999999999999 480.50000000000006 295.50000000000006 -68.499999999999986 -197.49999999999997 3.5833333333333335 525.00000000000011 19175.000000000004 -474.99999999999994 5.5000000000000009 250.50000000000003 -1.0000000180025095e-35 3.5000000000000004 -138.49999999999997 -193.49999999999997
decision_type=2 2 2 2 2 2 2 2 2 2 2 2 2 2 2 2 2 2 2 2 2 2 2 2 2 2 2 2 2 2
left_child=3 20 9 4 6 18 -1 -4 11 10 -3 -5 14 -7 15 -13 27 25 -6 -20 21 24 23 -23 -2 -12 -24 28 -9 -16
right_child=1 2 7 8 5 13 -8 16 -10 -11 17 12 -14 -15 29 -17 -18 -19 19 -21 -22 22 26 -25 -26 -27 -28 -29 -30 -31
leaf_value=-0.0024788338065790659 0.027574059789346836 0.026302112052487243 0.053688026522453351 -0.0074505051357800917 -0.064324187124938301 -0.042722066979059219 -0.06705781756110088 0.055345314973828046 -0.0024944896700090763 0.012585509704895524 0.044573450753424261 0.046918699015531452 -0.013729819008527145 -0.019874632048616617 -0.044338198925922293 -0.02939582338268297 0.033860571096674001 0.056948746340998516 0.033699853533972611 -0.044254193100642471 0.046451873384103087 0.011563563321253091 0.089066820279792291 -0.01430039980198514 0.007618249576830504 0.022166471309564832 0.004514605187010314 0.007206251706252222 -0.020869642593537772 -0.026169430173884824
leaf_weight=166.20650550723076 113.82304121553898 334.6112188398838 31.141292214393616 231.67093801498413 126.92344814538956 112.13578969240189 21.575665071606636 6.743635654449462 276.32840591669083 100.29620483517647 178.83123256266117 11.965651586651804 271.76894691586494 211.73420545458794 114.1819059252739 12.434761598706244 40.771298587322235 138.7208865582943 6.6946353167295447 36.318334728479385 22.270876377820969 86.102488845586777 6.9824082553386679 156.27261388301849 255.6240863353014 81.802519515156746 8.7225311994552595 346.94268381595612 66.849824041128159 271.97793304920197
leaf_count=666 457 1349 126 928 517 452 87 27 1106 403 722 48 1090 850 460 50 164 562 27 147 90 345 28 626 1024 330 35 1391 268 1093
internal_value=-0.000185385 0.0191353 0.0243296 -0.0205856 -0.0299352 -0.0375546 -0.00989878 0.00920036 -0.0152319 0.0332601 0.0360853 -0.0190828 -0.0230323 -0.0277853 -0.02919 0.00802785 0.00619715 0.0442824 -0.0561732 -0.0321213 0.00852983 0.00718398 -0.00223895 -0.00511236 0.0137664 0.0375408 0.0421065 0.00351516 -0.0138858 -0.0315417
internal_weight=3848.43 1976.51 1326.71 1871.92 681.589 493.806 187.782 492.449 1190.33 834.262 733.966 914 682.329 323.87 410.56 24.4004 461.307 399.355 169.936 43.013 649.798 627.527 258.08 242.375 369.447 260.634 15.7049 420.536 73.5935 386.16
internal_count=15468 7947 5342 7521 2746 1993 753 1976 4775 3366 2963 3669 2741 1302 1651 98 1850 1614 691 174 2605 2515 1034 971 1481 1052 63 1686 295 1553
is_linear=0
shrinkage=0.05


Tree=6
num_leaves=31
num_cat=0
split_feature=9 1 13 0 13 13 26 12 13 10 13 9 9 17 9 26 9 13 28 13 12 11 12 6 20 13 9 0 11 13
split_gain=548.691 39.5449 65.1848 34.1228 37.9023 33.1444 22.1586 18.1657 17.7608 16.1586 14.9988 15.0194 14.0689 13.8924 12.7552 12.6829 17.4659 12.9284 13.4163 13.0859 13.6573 12.6162 12.3275 12.2152 12.0303 11.8217 11.4477 11.306 15.8837 13.4256
threshold=31.500000000000004 1.0000000180025095e-35 15475.000000000002 5.5000000000000009 -12224.999999999998 -1624.9999999999998 0.77500000000000013 60.500000000000007 5825.0000000000009 144.50000000000003 -13974.999999999998 -156.49999999999997 -58.499999999999993 -1.0000000180025095e-35 -91.499999999999986 3.3666666666666671 494.50000000000006 6825.0000000000009 -15.099999999999998 1225.0000000000002 54.500000000000007 -36.499999999999993 -1.0000000180025095e-35 3.5000000000000004 4.5000000000000009 -2774.9999999999995 -300.49999999999994 3.5000000000000004 -4.4999999999999991 20825.000000000004
decision_type=2 2 2 2 2 2 2 2 2 2 2 2 2 2 2 2 2 2 2 2 2 2 2 2 2 2 2 2 2 2
left_child=3 15 7 4 13 21 10 8 -3 -9 14 25 -7 26 -5 16 17 18 19 20 -2 -6 -8 -13 -24 -12 -1 -4 29 -29
right_child=1 2 27 6 5 12 22 9 -10 -11 11 23 -14 -15 -16 -17 -18 -19 -20 -21 -22 -23 24 -25 -26 -27 -28 28 -30 -31
leaf_value=-0.022065564217854845 0.011902658507684074 0.030350228035587064 -0.0080201824964022343 -0.0021199446033850363 -0.032905767430769624 -0.03276924830573321 0.020217791670711662 0.0121086672628954 0.050686457420190283 0.03274681247317348 -0.049612882625928334 -0.018976510760108745 -0.0092263779671300627 -0.037607632678347908 -0.033206882997183731 0.043450728244924103 0.086948121226685604 -0.018281070853848419 0.015723490535367268 -0.018294736193355591 -0.023207238631021799 -0.062751898061067346 -0.0095327374024320559 0.014453218421744624 0.042695923920898861 -0.025488080435649194 0.0069375732051243843 0.054102625051136943 0.0078015058057558512 0.0090352637397574272
leaf_weight=51.345882624387741 180.73886054754257 265.05867803096771 83.469225361943245 184.45072108507156 50.581795707345009 236.47830250859261 46.727986231446266 167.88239109516144 180.46299189329147 217.99591378867626 69.65174363553524 341.64037099480629 86.730770424008369 35.437786057591438 40.185502588748932 24.429743692278862 6.712185710668563 50.908620327711105 283.21137799322605 70.718066468834877 32.710700467228889 118.02303050458431 277.82684640586376 29.70149002969265 11.481110557913778 187.41629566252232 100.84325383603573 37.802336171269417 341.40823400020599 29.36012576520443
leaf_count=206 724 1073 335 739 206 954 187 676 735 882 282 1373 348 143 161 99 27 204 1137 283 131 485 1114 119 46 754 404 153 1370 118
internal_value=-0.000176477 0.0182139 0.0231727 -0.0195938 -0.0285325 -0.0358266 -0.0144863 0.0317093 0.0385876 0.0237679 -0.0187702 -0.0227342 -0.0264517 -0.00941283 -0.00768113 0.00810848 0.00672704 0.00585615 0.00802189 0.000346202 0.00652214 -0.053798 -0.00361127 -0.0163027 -0.00746006 -0.0320246 -0.00284756 0.00874836 0.0121741 0.0344014
internal_weight=3841.39 1972.87 1323.44 1868.52 679.441 491.814 1189.08 831.4 445.522 385.878 853.046 628.41 323.209 187.627 224.636 649.43 625 618.288 567.379 284.168 213.45 168.605 336.036 371.342 289.308 257.068 152.189 492.04 408.571 67.1625
internal_count=15468 7947 5342 7521 2746 1993 4775 3366 1808 1558 3428 2528 1302 753 900 2605 2506 2479 2275 1138 855 691 1347 1492 1160 1036 610 1976 1641 271
is_linear=0
shrinkage=0.05


Tree=7
num_leaves=31
num_cat=0
split_feature=5 0 13 13 13 1 14 12 26 3 13 5 14 9 13 9 8 6 9 5 28 2 12 13 1 18 14 28 9 25
split_gain=501.312 36.5082 38.7718 32.5916 31.9103 61.481 25.2932 18.5558 17.6075 16.8075 15.1456 13.8036 17.0671 13.7798 13.7143 16.49 12.6676 13.8834 12.5617 12.3518 12.2984 12.2077 11.3401 10.8347 10.761 10.0441 9.80035 9.78152 9.58496 11.5498
threshold=1.0000000180025095e-35 5.5000000000000009 -12224.999999999998 -2474.9999999999995 15475.000000000002 1.0000000180025095e-35 4825.0000000000009 32.500000000000007 0.77500000000000013 13.500000000000002 5425.0000000000009 1.5000000000000002 -5924.9999999999991 399.50000000000006 -13974.999999999998 -156.49999999999997 6.5000000000000009 1.5000000000000002 501.00000000000006 -1.4999999999999998 -15.099999999999998 8.5000000000000018 -1.0000000180025095e-35 -2774.9999999999995 -1.0000000180025095e-35 3.5000000000000004 -24574.999999999996 68.100000000000009 -130.49999999999997 -4.4166666666666652
decision_type=2 2 2 2 2 2 2 2 2 2 2 2 2 2 2 2 2 2 2 2 2 2 2 2 2 2 2 2 2 2
left_child=1 2 6 -4 5 9 28 10 14 20 -7 -6 -13 16 -3 23 17 -9 -14 -5 26 -21 -10 -16 -11 -19 -2 -26 29 -1
right_child=4 8 3 19 11 7 -8 13 22 24 -12 12 18 -15 15 -17 -18 25 -20 21 -22 -23 -24 -25 27 -27 -28 -29 -30 -31
leaf_value=-0.063948507895836657 -0.061624233963192512 -0.006313805949692582 -0.05321734349608085 -0.033903805054289589 -0.026018954460474916 0.02947308851551015 -0.060232380975367532 0.008453625190305512 0.019378674088163683 0.061179862542494093 0.048484125313162763 0.042218891550924564 0.004558956021793281 0.045620824692509852 -0.047415107205736134 -0.014230661766529033 -0.042527884006996475 0.034501716040645447 0.043114726439961254 -0.022078872374630382 0.013451266066293944 0.014852443115139917 -0.007197797660100755 -0.024263798821153981 0.001730444606173234 0.0064015289193029542 -0.00049489437792441145 0.042834239099494353 0.020736087481726135 -0.0042208761563155769
leaf_weight=8.670419827103613 6.7409487664699546 224.56705302000046 164.04520513117313 197.69299101829529 29.653036922216415 244.82034714519978 20.860231265425682 141.21026264131069 46.462332561612129 21.045005828142166 183.13131199777126 36.057011798024178 427.15915217995644 56.387457937002182 69.246461823582649 394.65399864315987 8.1740656197071058 160.3871116489172 22.224705100059509 105.2122994363308 257.92589120566845 28.420552879571915 294.91847717761993 187.03879851102829 33.42308883368969 39.665043368935585 239.81886014342308 25.529150500893593 36.691464722156525 121.75221624970436
leaf_count=35 27 900 678 801 119 994 85 569 186 85 751 147 1714 230 282 1587 33 651 90 423 1037 114 1183 754 134 160 961 103 147 488
internal_value=-0.000168046 -0.0184059 -0.0276543 -0.0349908 0.0177574 0.0216286 -0.00832021 0.0303447 -0.0132124 0.00919484 0.0376084 0.00709843 0.0091214 0.022685 -0.0169681 -0.0206437 0.0189839 0.0204572 0.00646577 -0.0259666 0.00581848 -0.0142245 -0.00358071 -0.0305191 0.0304872 0.0289302 -0.00216617 0.0195304 -0.0018402 -0.00819153
internal_weight=3833.58 1900.23 683.345 495.371 1933.35 1418.26 187.974 833.776 1216.89 584.483 427.952 515.094 485.441 405.824 875.506 650.939 349.436 341.262 449.384 331.326 504.486 133.633 341.381 256.285 79.9972 200.052 246.56 58.9522 167.114 130.423
internal_count=15468 7663 2771 2016 7805 5735 755 3388 4892 2347 1745 2070 1951 1643 3523 2623 1413 1380 1804 1338 2025 537 1369 1036 322 811 988 237 670 523
is_linear=0
shrinkage=0.05


Tree=8
num_leaves=31
num_cat=0
split_feature=5 0 13 13 13 1 14 15 27 13 15 5 12 0 5 14 5 5 22 2 13 8 13 24 16 14 15 0 15 13
split_gain=453.541 33.2983 35.3512 30.1674 28.9894 56.0233 23.0635 17.3409 16.1989 18.25 14.2414 13.9181 13.3756 12.9489 12.2481 12.11 11.259 11.1725 15.1908 11.0327 10.9839 10.521 10.468 11.8119 9.9734 11.9797 9.64682 9.62389 9.42974 9.10427
threshold=1.0000000180025095e-35 5.5000000000000009 -12224.999999999998 -2474.9999999999995 15475.000000000002 1.0000000180025095e-35 4825.0000000000009 575.00000000000011 -1.4999999999999998 -13974.999999999998 -8124.9999999999991 3.5000000000000004 -407.49999999999994 3.5000000000000004 5.5000000000000009 -2324.9999999999995 -1.4999999999999998 -2.4999999999999996 -8.4999999999999982 8.5000000000000018 5725.0000000000009 6.5000000000000009 18875.000000000004 -1.0000000180025095e-35 8525.0000000000018 -11874.999999999998 -3624.9999999999995 11.500000000000002 2975.0000000000005 825.00000000000011
decision_type=2 2 2 2 2 2 2 2 2 2 2 2 2 2 2 2 2 2 2 2 2 2 2 2 2 2 2 2 2 2
left_child=1 2 6 -4 5 10 -1 12 9 -3 24 21 -7 14 26 22 -5 -11 -19 -18 -14 -9 -15 -24 25 -2 -6 -13 -17 -10
right_child=4 8 3 16 13 7 -8 11 29 17 -12 27 20 15 -16 28 19 18 -20 -21 -22 -23 23 -25 -26 -27 -28 -29 -30 -31
leaf_value=-0.0017493401809182475 -0.031446911014129962 -0.0049122379360868077 -0.051050282955134946 -0.032336576948719047 0.025993598937794855 -0.012845659603860258 -0.057720051121895856 0.018323742323695973 -0.020817547552472709 -0.031718658816543024 0.013332398074034902 0.038998746786418098 0.03221430712843764 0.062642351581170902 0.056081583917777178 0.015274049495983469 -0.021004535005570795 0.038727164934605124 -0.018653766621004587 0.014105160608462298 0.051272896839281414 -0.051581085097663792 -0.027715376301045036 0.038950385825129351 0.027949722933992407 0.00094960794875599953 -0.023044566969685779 0.0022302079016949384 -0.00049936803494650764 -0.0020422394150919044
leaf_weight=167.05608874559402 42.421732425689697 218.53753864765167 162.49783708155155 196.93020159006119 11.717334270477293 12.465512871742247 20.684225007891655 326.98093250393867 77.600841507315636 191.97662740945816 434.0321087539196 151.90691685676575 185.82500317692757 19.165727898478508 6.3578765839338294 188.51213698089123 105.06768907606602 11.950568988919256 331.01067563891411 28.429686978459358 127.44776138663292 5.47256876528263 10.376992329955103 18.471773698925972 20.408597886562347 87.175714388489723 69.600929155945778 20.15826915204525 190.50596490502357 384.42154623568058
leaf_count=670 170 876 678 801 47 51 85 1328 313 779 1745 622 757 79 26 757 423 48 1335 114 526 22 42 75 82 350 279 82 765 1541
internal_value=-0.000159962 -0.0175252 -0.0263795 -0.0334118 0.0169097 0.0206074 -0.00791589 0.0289538 -0.0125669 -0.0170869 0.00874233 0.0231475 0.0379468 0.00674923 -0.0107531 0.0103427 -0.0247375 -0.0220606 -0.0166543 -0.0135276 0.0399679 0.017173 0.0339995 0.0149705 -0.00453872 -0.00965489 -0.0159785 0.0346911 0.00734585 -0.00519572
internal_weight=3825.17 1896.16 680.666 492.925 1929 1414.3 187.74 830.257 1215.5 753.475 584.038 504.519 325.738 514.709 87.6761 427.033 330.428 534.938 342.961 133.497 313.273 332.454 48.0145 28.8488 150.006 129.597 81.3183 172.065 379.018 462.022
internal_count=15468 7663 2771 2016 7805 5735 755 3388 4892 3038 2347 2054 1334 2070 352 1718 1338 2162 1383 537 1283 1350 196 117 602 520 326 704 1522 1854
is_linear=0
shrinkage=0.05


Tree=9
num_leaves=31
num_cat=0
split_feature=9 1 13 0 13 13 14 14 15 3 26 5 9 11 13 5 2 13 10 24 9 9 12 26 9 13 14 14 9 28
split_gain=411.274 29.3546 48.8901 25.8262 28.821 26.696 23.783 19.737 18.5911 17.6177 17.1731 13.9479 13.281 13.5184 11.6029 11.4312 13.6142 11.3178 11.9773 11.8656 11.5467 11.3164 11.1328 10.9435 15.5995 11.9104 11.8175 11.122 11.0565 10.4796
threshold=31.500000000000004 1.0000000180025095e-35 15475.000000000002 5.5000000000000009 -12224.999999999998 -2474.9999999999995 4825.0000000000009 -5924.9999999999991 575.00000000000011 6.5000000000000009 0.77500000000000013 3.5000000000000004 -68.499999999999986 -197.49999999999997 -1074.9999999999998 -1.4999999999999998 8.5000000000000018 -13974.999999999998 200.50000000000003 -6.4999999999999991 -91.499999999999986 480.50000000000006 479.50000000000006 3.3666666666666671 494.50000000000006 6825.0000000000009 2125.0000000000005 -11874.999999999998 134.50000000000003 -15.099999999999998
decision_type=2 2 2 2 2 2 2 2 2 2 2 2 2 2 2 2 2 2 2 2 2 2 2 2 2 2 2 2 2 2
left_child=3 23 8 4 6 12 -1 -4 9 -3 17 22 -6 -14 -11 -7 -17 20 19 -19 -5 -9 -10 24 25 29 27 -27 -28 -2
right_child=1 2 7 10 5 15 -8 21 11 14 -12 -13 13 -15 -16 16 -18 18 -20 -21 -22 -23 -24 -25 -26 26 28 -29 -30 -31
leaf_value=-0.0018439673220913243 0.0003155927820528216 0.045901447601246294 0.046679164823857734 -0.0014444287814614073 -0.056669133891450119 -0.030763737060027781 -0.058349531602477495 0.0026292140115142699 0.017205891475787733 -0.010897151389557158 -0.0030048921922891346 0.033139499459026646 0.043307143474804508 -0.035964639453229072 0.029176066382295553 -0.019947253129428064 0.019800910926583551 0.0063070756880455178 -0.003891564748057989 -0.024769501011064513 -0.031049646411590682 0.030312429824666233 -0.035272788404845309 0.040112465177336153 0.082082908723446146 0.008396453607360136 -0.024055737607075207 -0.054730772488321283 0.054997995970364172 0.013917476584945646
leaf_weight=166.05685757100582 283.96695522964001 203.08168396353722 30.369014382362366 184.35633805394173 117.50990504026413 195.85243780910969 20.973977282643318 419.95844551920891 318.77660605311394 22.28377366065979 335.70176032185555 171.14191608130932 6.3848852515220633 34.106679782271385 95.374669715762138 103.40420447289944 27.211706757545471 32.757983684539795 99.228418946266174 492.70197881758213 40.098790481686592 40.473752811551094 10.436899825930594 24.1904167085886 6.6369920372962943 9.9767212420701963 8.9890144169330615 23.208106398582458 8.7073097527027112 282.46841125190258
leaf_count=666 1138 838 126 739 499 800 87 1686 1298 91 1347 704 26 142 393 417 109 132 399 1997 161 164 42 99 27 40 36 93 35 1137
internal_value=-0.000152309 0.0158214 0.0201223 -0.0170183 -0.0248522 -0.0312884 -0.0081806 0.00763775 0.0275849 0.0369819 -0.0125785 0.0215612 -0.0481597 -0.0234647 0.0215864 -0.0231231 -0.0116664 -0.0163634 -0.0198235 -0.0228321 -0.00673339 0.00506267 0.0155422 0.00711602 0.00583676 0.00501701 -0.0181557 -0.0357521 0.0148419 0.00709854
internal_weight=3816.39 1960.04 1311.9 1856.35 671.501 484.47 187.031 490.801 821.096 320.74 1184.85 500.355 158.001 40.4916 117.658 326.468 130.616 849.144 624.688 525.46 224.455 460.432 329.214 648.144 623.954 617.317 50.8812 33.1848 17.6963 566.435
internal_count=15468 7947 5342 7521 2746 1993 753 1976 3366 1322 4775 2044 667 168 484 1326 526 3428 2528 2129 900 1850 1340 2605 2506 2479 204 133 71 2275
is_linear=0
shrinkage=0.05


Tree=10
num_leaves=31
num_cat=0
split_feature=5 6 13 5 13 13 18 14 26 13 23 16 24 2 22 13 14 15 5 6 14 3 5 4 14 10 28 15 10 16
split_gain=341.545 33.5056 28.2773 30.2433 26.3591 43.5083 23.526 20.3622 20.1686 13.6493 12.2583 10.5824 10.4301 10.2673 10.98 9.72124 9.47778 11.6362 9.43167 9.05411 10.9878 8.82061 8.77773 9.42888 8.88451 8.38709 8.17274 8.04944 8.00668 9.08698
threshold=1.0000000180025095e-35 -2.4999999999999996 17325.000000000004 2.5000000000000004 -13974.999999999998 725.00000000000011 -1.0000000180025095e-35 -12224.999999999998 -0.63333333333333319 3975.0000000000005 2.5000000000000004 -8424.9999999999982 8.5000000000000018 7.5000000000000009 -8.4999999999999982 3025.0000000000005 -10024.999999999998 -324.99999999999994 1.5000000000000002 2.5000000000000004 9275.0000000000018 2.5000000000000004 -2.4999999999999996 -3.4999999999999996 3425.0000000000005 499.50000000000006 -112.54999999999998 -9124.9999999999982 -69.499999999999986 7425.0000000000009
decision_type=2 2 2 2 2 2 2 2 2 2 2 2 2 2 2 2 2 2 2 2 2 2 2 2 2 2 2 2 2 2
left_child=4 13 3 7 21 6 -6 28 11 -5 -11 -7 22 14 -2 -16 17 -10 -4 20 -9 -1 23 24 -8 -21 -15 -22 -3 -30
right_child=1 2 18 9 5 8 12 19 16 10 -12 -13 -14 26 15 -17 -18 -19 -20 25 27 -23 -24 -25 -26 -27 -28 -29 29 -31
leaf_value=-0.031142528065022063 0.052293792894952812 -0.041010749842036356 -0.02094586590101705 0.021140865779511433 -0.018167668915355224 -0.0037611270222248196 0.0088246671070521844 0.014629670017940867 0.066721639574435859 0.040984042708050485 0.020694438224386335 -0.029327240404682264 0.014364380839639916 0.048884558691086322 -0.0085879855210006361 -0.04990442477217942 -0.0077218707064198484 0.0012359447351285504 0.0085736041507356101 0.026878454323857982 -0.071129818924065863 -0.0017895108125448975 -0.033392556645686536 -0.058839268254181544 -0.057479638862242083 -0.038006981421596267 0.004877709716617779 -0.0040809077181785157 0.012777968286056984 -0.060383809425157579
leaf_weight=27.434822753071785 6.7312865108251563 21.708276554942131 28.905611276626587 363.5759933590889 292.91712900996208 52.332458540797234 11.268544703722002 258.71880872547626 9.414359435439108 249.12563075125217 106.16745249927044 178.64570026099682 9.2781428396701795 12.692028179764746 133.77670930325985 15.932495608925818 597.58720681071281 24.275186702609062 423.55711889266968 159.52725386619568 4.9304085671901694 381.37467528879642 202.10126587748528 82.656785637140274 9.1586322039365751 5.1408057361841193 62.523565962910652 48.60421434044838 23.121738374233249 5.1983462572097769
leaf_count=111 27 87 116 1482 1195 212 47 1047 38 1037 437 725 38 51 538 64 2406 98 1704 653 20 1531 837 350 38 21 252 197 94 21
internal_value=0.000187985 0.0149604 0.0173936 0.0212818 -0.0149894 -0.0181132 -0.0283636 0.0121827 -0.0108928 0.0279516 0.0349212 -0.0235348 -0.0378609 -0.00287734 -0.0101762 -0.012985 -0.00626721 0.0195356 0.00668775 0.015366 0.0103631 -0.00375936 -0.0394486 -0.0513218 -0.0209032 0.0248528 0.0123035 -0.0102559 -0.0181641 -0.000651379
internal_weight=3808.38 1929.94 1698.28 1245.82 1878.44 1469.64 607.381 526.95 862.255 718.869 355.293 230.978 314.463 231.656 156.44 149.709 631.277 33.6895 452.463 476.921 312.253 408.809 305.185 103.084 20.4272 164.668 75.2156 53.5346 50.0284 28.3201
internal_count=15474 7848 6916 5096 7626 5984 2505 2140 3479 2956 1474 937 1310 932 629 602 2542 136 1820 1938 1264 1642 1272 435 85 674 303 217 202 115
is_linear=0
shrinkage=0.05


Tree=11
num_leaves=31
num_cat=0
split_feature=5 6 13 5 0 13 5 13 14 27 21 4 13 0 14 11 18 14 13 0 14 0 26 13 14 5 11 28 18 11
split_gain=309.015 30.3695 25.7419 27.6056 24.2257 30.3433 24.3189 20.376 18.406 18.1632 12.8873 12.882 12.5879 11.8771 11.5651 11.1453 11.0473 12.012 11.0425 10.3405 10.032 9.56233 9.26776 9.23964 8.89723 8.51311 8.48005 8.45874 9.51703 12.0728
threshold=1.0000000180025095e-35 -2.4999999999999996 17325.000000000004 2.5000000000000004 9.5000000000000018 -12674.999999999998 -1.4999999999999998 -3374.9999999999995 -12224.999999999998 62.833333333333336 6.5000000000000009 -5.4999999999999991 3975.0000000000005 5.5000000000000009 -5574.9999999999991 -2.4999999999999996 -1.0000000180025095e-35 8475.0000000000018 14275.000000000002 3.5000000000000004 2725.0000000000005 8.5000000000000018 1.2250000000000003 8975.0000000000018 75.000000000000014 1.5000000000000002 324.50000000000006 250.90000000000003 3.5000000000000004 287.50000000000006
decision_type=2 2 2 2 2 2 2 2 2 2 2 2 2 2 2 2 2 2 2 2 2 2 2 2 2 2 2 2 2 2
left_child=4 -2 3 8 5 16 7 15 -3 -6 -11 -9 13 -5 23 19 20 -18 21 -7 -1 -16 -13 -14 -20 -4 -15 28 29 -24
right_child=1 2 25 12 9 6 -8 11 -10 10 -12 22 14 26 18 -17 17 -19 24 -21 -22 -23 27 -25 -26 -27 -28 -29 -30 -31
leaf_value=0.0010655895738308882 -0.0027332988955053191 -0.017258786668527714 -0.019892667718865359 0.0330142690966585 -0.0093447494584009087 -0.063083798559967666 -0.012848351333319869 -0.0029522700247109727 0.014625977940924831 0.0073671845294306848 0.058266329047026569 -0.03105680916787782 0.03010381526849637 0.010448361796326876 0.041236928136239359 -0.05617985848327383 -0.008873902588808354 -0.051271376590015218 -0.021497736252650623 -0.016069233301596205 0.047046642101767094 0.021458175209521566 -0.03974011806643224 0.075036016134544248 0.024282505434926663 0.0081492034148351305 0.040005338547535463 -0.06000304586557164 0.016659549191657463 0.00033505009941355734
leaf_weight=154.06682945787907 231.63865035772324 50.017724245786667 28.913944080471992 119.89802235364914 357.59184099733829 15.749898448586462 452.99492993950844 68.191837146878242 476.04173828661442 79.843684986233711 14.730347439646719 295.14216621220112 19.514246985316277 215.34999127686024 162.67294402420521 84.682535156607628 164.71518096327782 18.591766595840454 17.028319835662842 45.432749301195145 12.851900175213812 97.877393111586571 35.91309317946434 27.657022401690483 28.170408472418785 423.34039042890072 27.349004685878754 9.1752347946166974 25.328329384326935 39.422705829143524
leaf_count=618 932 202 116 493 1448 68 1837 278 1938 320 59 1208 81 877 684 368 662 77 70 188 52 405 145 118 116 1704 112 37 102 159
internal_value=0.00017894 0.0142472 0.0165693 0.0202895 -0.0142724 -0.0174775 -0.0216517 -0.0280938 0.0115944 -0.00419116 0.015295 -0.0230572 0.0266823 0.0201395 0.0334044 -0.044432 -0.00470006 -0.013174 0.0298493 -0.0281719 0.0046059 0.0338069 -0.0264425 0.056448 0.0070351 0.0063564 0.013779 -0.0140438 -0.00985479 -0.0187691
internal_weight=3799.89 1925.47 1693.83 1241.58 1874.43 1422.26 1072.03 619.039 526.059 452.166 94.574 473.173 715.517 362.597 352.92 145.865 350.226 183.307 305.749 61.1826 166.919 260.55 404.982 47.1713 45.1987 452.254 242.699 109.839 100.664 75.3358
internal_count=15474 7848 6916 5096 7626 5799 4390 2553 2140 1827 379 1929 2956 1482 1474 624 1409 739 1275 256 670 1089 1651 199 186 1820 989 443 406 304
is_linear=0
shrinkage=0.05


Tree=12
num_leaves=31
num_cat=0
split_feature=9 5 0 13 13 9 27 13 10 14 0 13 5 13 0 13 13 14 12 12 4 11 3 24 10 14 11 16 18 14
split_gain=280.926 26.1153 20.8264 23.8121 29.1102 18.1277 17.4682 17.106 26.5749 16.2389 13.1679 13.8227 13.1142 12.0993 12.381 11.2628 11.2128 11.4937 10.6051 10.3645 10.3148 10.3079 10.2987 10.2081 10.1145 9.32049 9.05355 8.66902 8.58283 9.725
threshold=31.500000000000004 2.5000000000000004 9.5000000000000018 -12674.999999999998 2625.0000000000005 -168.49999999999997 67.416666666666671 17325.000000000004 -136.49999999999997 -11874.999999999998 4.5000000000000009 3875.0000000000005 1.0000000180025095e-35 14275.000000000002 3.5000000000000004 21025.000000000004 14275.000000000002 -1824.9999999999998 376.50000000000006 -196.49999999999997 -5.4999999999999991 -138.49999999999997 20.500000000000004 2.5000000000000004 -197.49999999999997 17925.000000000004 355.50000000000006 575.00000000000011 -1.0000000180025095e-35 8125.0000000000009
decision_type=2 2 2 2 2 2 2 2 2 2 2 2 2 2 2 2 2 2 2 2 2 2 2 2 2 2 2 2 2 2
left_child=2 9 3 21 5 20 -4 8 -3 18 16 26 24 -14 -15 27 -10 -18 -2 -6 -5 -1 25 -13 -11 -7 -12 -8 -23 -30
right_child=1 7 6 4 19 22 15 -9 10 12 11 23 13 14 -16 -17 17 -19 -20 -21 -22 28 -24 -25 -26 -27 -28 -29 29 -31
leaf_value=0.004235515216756993 -0.0080761606289874565 0.0044917213290923156 -0.0093856337648797264 -0.015695397542155733 0.0075492211244685622 -0.024735001985200091 -0.0028017744831286624 0.0089709449151542837 0.045106215123324689 -0.057323755305379122 0.010613359124412067 0.036734473283825494 0.015117917748911941 -0.059801010935447055 0.0013952567958914583 -0.035290894697922646 0.07667384856762674 -0.0058385604697207766 -0.079616684816252545 -0.014274338424174266 -0.044755488569648061 0.0033364956940817483 0.047059085385821431 0.014435538345904098 -0.0030641248233969397 0.0052771004980565438 0.041948606059171945 0.032958547909863217 -0.014396343659627879 -0.05214712671295299
leaf_weight=151.76743321120739 105.41393820941448 173.08431378006935 357.47790139913559 36.939541205763817 62.965054482221603 334.02022464573383 24.714695483446121 367.47294797003269 131.49567773938179 9.7287237048149091 216.4506104439497 186.37692834436893 469.39828245341778 9.1812432259321195 82.824484020471573 9.7355009913444501 5.2159278839826611 22.114286571741104 5.4479970484971991 400.17563682794571 176.13983148336411 56.325539752840996 5.41475886106491 70.828037977218628 73.300703629851341 28.041121706366539 25.798597320914268 53.92644564807415 119.26796361804008 19.907485410571098
leaf_count=609 424 698 1449 154 255 1381 99 1480 554 39 885 784 1914 37 334 39 23 91 22 1620 746 226 22 295 294 114 107 216 480 83
internal_value=0.000170353 0.0133665 -0.0138686 -0.0168829 -0.0206565 -0.0281148 -0.00446477 0.0179545 0.0219253 0.00608432 0.0265092 0.0225214 0.00912515 0.0118682 -0.00471151 0.0154398 0.0390496 0.0099088 -0.0115918 -0.0113074 -0.0397176 -0.00554153 -0.021387 0.0305939 -0.00942183 -0.0224106 0.0139504 0.0217201 -0.0131314 -0.0197962
internal_weight=3790.95 1954.13 1836.82 1390.96 1043.7 580.555 445.855 1198.84 831.364 755.295 658.28 499.454 644.433 561.404 92.0057 88.3766 158.826 27.3302 110.862 463.141 213.079 347.268 367.476 257.205 83.0294 362.061 242.249 78.6411 195.501 139.175
internal_count=15474 7981 7493 5690 4292 2417 1803 4917 3437 3064 2739 2071 2618 2285 371 354 668 114 446 1875 900 1398 1517 1079 333 1495 992 315 789 563
is_linear=0
shrinkage=0.05


Tree=13
num_leaves=31
num_cat=0
split_feature=9 6 0 17 9 4 25 3 14 26 3 28 11 11 6 24 9 14 1 1 3 6 16 1 11 23 15 11 9 24
split_gain=254.228 25.6272 18.9167 16.4499 12.7934 10.5698 11.8203 19.8092 14.3961 10.0677 10.0128 9.86386 9.97119 10.6584 8.6355 8.8993 8.19449 9.95129 11.6179 8.23761 11.2285 8.07908 7.97759 7.82862 7.60243 7.49093 9.85333 11.808 7.48302 7.55605
threshold=31.500000000000004 -2.4999999999999996 9.5000000000000018 1.5000000000000002 527.00000000000011 -5.4999999999999991 0.58333333333333337 2.5000000000000004 5125.0000000000009 -2.5499999999999994 3.5000000000000004 45.45000000000001 304.50000000000006 13.500000000000002 -2.4999999999999996 1.0000000180025095e-35 193.50000000000003 17675.000000000004 2.5000000000000004 -1.0000000180025095e-35 12.500000000000002 5.5000000000000009 -18524.999999999996 5.5000000000000009 440.50000000000006 1.0000000180025095e-35 3075.0000000000005 -160.49999999999997 -569.99999999999989 8.5000000000000018
decision_type=2 2 2 2 2 2 2 2 2 2 2 2 2 2 2 2 2 2 2 2 2 2 2 2 2 2 2 2 2 2
left_child=2 9 5 -4 16 -1 7 14 10 -2 -9 -10 13 -13 -7 -16 23 18 19 -18 -21 -6 -11 -3 -5 26 27 -22 -12 -30
right_child=1 4 3 24 21 6 -8 8 11 22 28 12 -14 -15 15 -17 17 -19 -20 20 25 -23 -24 -25 -26 -27 -28 -29 29 -31
leaf_value=-0.0056556168809517565 0.043484940796086946 0.010714707912727973 -0.0084754339184305669 0.022105841283023772 0.071719740815651717 -0.055086516796051734 -0.0092207364172234296 -0.0016813320577174315 -0.045539459464083519 -0.047760640826580145 -0.075323286063367426 0.03990029554562257 0.033537026047120971 -0.040174889759400867 -0.036287907376190726 -0.0012819970426801177 0.051473560609858374 0.028762072294771148 0.0053789810420504895 0.019574091732150255 -0.040685574612235459 0.027487815129348926 -0.0030101267489296432 -0.015323367050349694 -0.040408046637750189 0.029061460941257774 -0.037351875852481335 0.022813290254633509 -0.018163208232098361 0.013316478773261557
leaf_weight=206.63564090430737 11.194712623953817 569.47866016626358 373.16782554984093 67.104823842644691 13.789884358644484 45.681519046425819 293.7189657241106 124.7563024610281 68.770550042390823 10.448649629950522 5.539373278617858 4.9443042278289822 8.5682205706834775 26.052330076694489 91.95590116083622 22.622222155332565 18.048277229070663 147.39713028073311 242.37601187825203 578.66127915680408 10.00332562625408 41.069836959242821 212.51545915007591 30.408842980861664 5.2434041351079932 16.082605823874474 20.514497637748718 27.30545175075531 467.82967990636826 19.871945753693581
leaf_count=843 45 2320 1513 269 58 197 1186 507 287 42 23 20 35 108 393 92 74 616 988 2384 41 173 855 123 21 66 84 112 1918 81
internal_value=0.000162329 0.0127317 -0.0132084 -0.00424502 0.01485 -0.0160877 -0.017914 -0.020794 -0.0172833 -0.00278414 -0.0143361 -0.0340959 -0.014205 -0.027402 -0.036705 -0.0293764 0.014065 0.0167071 0.0147609 0.0181517 0.0172302 0.0386062 -0.00510725 0.00939481 0.0175752 -0.00112217 -0.00951725 0.00578781 -0.0175369 -0.0168805
internal_weight=3781.76 1949.29 1832.46 445.516 1715.14 1386.95 1180.31 886.592 726.333 234.159 617.997 108.335 39.5649 30.9966 160.26 114.578 1660.28 1060.39 912.991 670.615 652.567 54.8597 222.964 599.888 72.3482 73.9059 57.8233 37.3088 493.241 487.702
internal_count=15474 7981 7493 1803 7039 5690 4847 3661 2979 942 2529 450 163 128 682 485 6808 4365 3749 2761 2687 231 897 2443 290 303 237 153 2022 1999
is_linear=0
shrinkage=0.05


Tree=14
num_leaves=31
num_cat=0
split_feature=5 6 13 5 13 13 0 21 9 6 15 0 16 21 15 17 10 28 13 9 22 0 9 26 12 15 9 7 12 26
split_gain=230.466 23.2531 21.3799 21.7601 21.2126 34.3408 18.0348 15.6513 20.0952 12.6909 11.7943 10.9456 9.85802 9.73317 9.1941 11.4086 11.8182 8.93683 8.9131 9.37414 8.70128 8.47684 8.47025 8.25455 9.73974 8.16514 8.06943 7.85692 7.64567 9.19606
threshold=1.0000000180025095e-35 -2.4999999999999996 17325.000000000004 2.5000000000000004 -13974.999999999998 725.00000000000011 9.5000000000000018 -1.4999999999999998 -94.499999999999986 2.5000000000000004 -21074.999999999996 7.5000000000000009 5075.0000000000009 4.5000000000000009 -824.99999999999989 3.5000000000000004 300.50000000000006 -95.774999999999991 -19574.999999999996 190.50000000000003 -9.4999999999999982 3.5000000000000004 346.50000000000006 0.55000000000000016 -199.49999999999997 10575.000000000002 -211.49999999999997 -1.0000000180025095e-35 -68.499999999999986 -0.63333333333333319
decision_type=2 2 2 2 2 2 2 2 2 2 2 2 2 2 2 2 2 2 2 2 2 2 2 2 2 2 2 2 2 2
left_child=4 -2 3 9 -1 7 23 -6 13 18 -8 -5 14 27 26 16 -16 -10 -3 20 -20 22 -4 24 -7 -22 -12 -9 29 -14
right_child=1 2 21 11 5 6 10 8 17 -11 12 -13 28 -15 15 -17 -18 -19 19 -21 25 -23 -24 -25 -26 -27 -28 -29 -30 -31
leaf_value=-0.0022885177829295774 -0.0025083705324587089 0.058132031492903129 -0.030006815534990641 0.029110599851354481 -0.016108530667332536 -0.0033631654394781622 -0.057941131621527586 -0.031595077810680619 -0.044325141026358789 0.021398656989005255 -0.035886802377752186 0.016576898408173241 -0.0031960512364721419 -0.013935375244091964 -0.024421338466376452 0.037673943382601431 0.022584669759345491 -0.0077510481966715132 0.067622037772003832 -0.0132205874433853 0.0022950766280944073 0.0080388591351973609 0.0047973351141315547 -0.0072967154509091222 -0.023695504221092102 0.024917120974391513 0.029221500528039068 -0.054021220280690757 0.011642695506697826 0.078960701450162318
leaf_weight=407.72388111054897 231.52505533397198 7.6462170481681815 31.705607771873474 392.08591943979263 290.84803435206413 77.645294740796089 7.6482307612895957 60.229243770241737 20.716812685132027 168.32866068184376 5.654681369662284 313.43895652890205 5.1779749244451514 27.189638763666153 76.584795370697975 10.98447325825691 16.200216010212898 86.192207291722298 5.9060824513435355 67.164501264691353 226.22720961272717 380.62604551017284 38.965415135025978 304.12456220388412 243.96539109945297 48.426151901483536 30.04241281747818 111.09492284059525 69.820331484079361 9.9535459578037244
leaf_count=1642 932 31 127 1655 1202 316 31 253 88 696 23 1301 21 115 309 44 65 357 24 274 918 1536 157 1228 1000 197 121 490 281 40
internal_value=0.000154362 0.012347 0.0143936 0.0178108 -0.0123674 -0.0151935 -0.00878715 -0.0244097 -0.0323148 0.0100893 0.00311763 0.0235423 0.00519852 -0.0417267 -0.00298023 -0.0105098 -0.0162141 -0.0148384 0.00473244 0.00355821 0.00757497 0.00508611 -0.0108171 -0.0132023 -0.0187867 0.00628374 0.0189079 -0.0461373 0.0186257 0.0508468
internal_weight=3773.84 1912.05 1680.52 1229.22 1861.8 1454.07 857.802 596.271 305.423 523.699 232.067 705.525 224.418 198.514 139.467 103.769 92.785 106.909 355.37 347.724 280.559 451.297 70.671 625.735 321.611 274.653 35.6971 171.324 84.9519 15.1315
internal_count=15474 7848 6916 5096 7626 5984 3479 2505 1303 2140 935 2956 904 858 562 418 374 445 1444 1413 1139 1820 284 2544 1316 1115 144 743 342 61
is_linear=0
shrinkage=0.05


Tree=15
num_leaves=31
num_cat=0
split_feature=5 13 13 9 14 1 13 13 14 1 3 15 5 0 2 13 9 12 13 18 5 13 25 27 16 15 22 0 3 9
split_gain=226.92 25.6597 28.5316 24.2278 17.6426 16.7828 28.666 18.7268 18.5973 16.2983 14.4168 14.2031 13.1554 11.8434 12.0635 11.4873 11.2787 10.9485 10.7115 13.9653 10.6776 12.1913 10.4348 10.6657 10.4299 9.7027 9.65946 9.26674 9.22237 10.6999
threshold=1.0000000180025095e-35 -13974.999999999998 -2474.9999999999995 527.00000000000011 19125.000000000004 1.0000000180025095e-35 14275.000000000002 4075.0000000000005 -6624.9999999999991 5.5000000000000009 21.500000000000004 -8124.9999999999991 -1.4999999999999998 3.5000000000000004 11.500000000000002 21875.000000000004 -162.49999999999997 73.500000000000014 -11024.999999999998 1.0000000180025095e-35 2.5000000000000004 -3174.9999999999995 -4.4166666666666652 242.16666666666671 8325.0000000000018 -15524.999999999998 -4.4999999999999991 9.5000000000000018 6.5000000000000009 -377.49999999999994
decision_type=2 2 2 2 2 2 2 2 2 2 2 2 2 2 2 2 2 2 2 2 2 2 2 2 2 2 2 2 2 2
left_child=1 -1 10 5 12 11 7 17 -8 27 16 24 22 14 -10 -14 25 26 19 -18 21 -13 -4 28 -2 -3 -7 -9 -24 -30
right_child=3 2 4 -5 -6 6 8 9 13 -11 -12 20 15 -15 -16 -17 18 -19 -20 -21 -22 -23 23 -25 -26 -27 -28 -29 29 -31
leaf_value=-0.0015941239851238543 -0.01386644971231407 -0.0052737900527689806 -0.069233637431478201 0.043250960847972912 0.0040554668987985969 -0.0039116188189438038 0.042604287734344382 0.036071644071250457 -0.0096677243220040926 -0.0013736057360039309 0.051194592804338461 0.016192536803517833 -0.0058971267912671273 0.0060417504859164245 -0.084867564456649197 -0.052978864312964349 0.014150825653373023 0.0016500097640439388 -0.027627700164986158 -0.061378997251623706 0.016944635605215638 -0.0071761517456793641 -0.024073804121884722 -0.091559794643478076 0.024567091381249326 -0.045351666348012964 0.024774123604190443 0.018028218074787727 -0.045991394228350919 -0.0077971934848936669
leaf_weight=409.45058546960354 136.03522683680058 17.237240761518478 10.304636418819426 59.846146270632744 151.75728733837605 35.83929355442524 30.277500480413437 262.36709073185921 78.508681789040565 43.052546739578247 5.6484485268592826 88.442294433712959 389.06423772871494 361.68709616363049 5.7217833250761023 13.401756152510641 34.240903005003929 149.53394475579262 170.13596232235432 7.4519731849431983 207.16702173650265 151.26770415902138 275.02643051743507 4.9399463087320319 20.284360319375992 121.88874255120754 161.99755915999413 97.640935435891151 19.914771988987923 231.41472007334232
leaf_count=1650 548 72 43 255 612 149 130 1123 316 177 23 358 1574 1461 23 54 140 615 723 32 842 609 1134 20 82 537 676 408 82 950
internal_value=-0.000260829 -0.0126493 -0.0157659 0.0119455 -0.0117682 0.0109216 0.0142795 0.0203684 0.00468417 0.027701 -0.0280505 0.00409312 -0.0143118 0.00210942 -0.0147761 -0.00746491 -0.029326 0.0118602 -0.0220618 0.000651008 0.00863091 0.00144585 -0.0193998 -0.0184333 -0.00887923 -0.0403862 0.0195775 0.0311779 -0.017747 -0.0108236
internal_weight=3751.55 1861.88 1452.43 1889.67 1095.82 1829.82 1226.63 750.431 476.195 403.061 356.603 603.197 944.066 445.918 84.2305 402.466 350.955 347.371 211.829 41.6929 446.877 239.71 541.601 531.296 156.32 139.126 197.837 360.008 526.356 251.329
internal_count=15418 7646 5996 7772 4469 7517 5078 3148 1930 1708 1527 2439 3857 1800 339 1628 1504 1440 895 172 1809 967 2229 2186 630 609 825 1531 2166 1032
is_linear=0
shrinkage=0.05


Tree=16
num_leaves=31
num_cat=0
split_feature=5 13 13 5 10 6 13 13 0 5 28 7 1 3 18 24 18 13 1 13 15 5 28 13 22 13 0 7 2 15
split_gain=205.408 23.3138 26.2267 21.4402 17.1149 16.5671 19.9372 22.1508 17.3987 14.5805 14.1084 13.7405 12.4446 12.0898 11.5525 10.7488 10.5188 10.2556 9.36969 9.28865 9.32191 9.81397 9.32186 8.90701 8.83494 8.53771 10.0796 8.86622 8.34359 9.0062
threshold=1.0000000180025095e-35 -13974.999999999998 -2474.9999999999995 5.5000000000000009 362.50000000000006 -2.4999999999999996 14275.000000000002 4075.0000000000005 3.5000000000000004 -4.4999999999999991 -17.099999999999998 3.5000000000000004 5.5000000000000009 21.500000000000004 -1.0000000180025095e-35 8.5000000000000018 -1.0000000180025095e-35 -10624.999999999998 1.0000000180025095e-35 23525.000000000004 -21524.999999999996 -1.4999999999999998 -214.46666666666664 -13574.999999999998 -9.4999999999999982 2125.0000000000005 5.5000000000000009 -3.4999999999999996 11.500000000000002 -3624.9999999999995
decision_type=2 2 2 2 2 2 2 2 2 2 2 2 2 2 2 2 2 2 2 2 2 2 2 2 2 2 2 2 2 2
left_child=1 -1 11 5 -5 25 7 10 28 -4 24 13 18 17 -10 19 -6 -3 -9 20 -11 -22 -23 -12 -7 26 -2 -27 29 -8
right_child=3 2 9 4 16 6 8 12 14 15 23 -13 -14 -15 -16 -17 -18 -19 -20 -21 21 22 -24 -25 -26 27 -28 -29 -30 -31
leaf_value=-0.0015145789315755341 0.017892006894182889 -0.01028520022095618 -0.038446321812024155 0.071239908340288191 -0.036870626392222376 0.050467622829447639 0.029733831627688091 0.007762726458715237 0.0314941394157622 -0.045039677057320524 0.041132893446962318 -0.060136173955050588 -0.0016219617228047092 0.04838477206617281 0.0050178026813693403 0.017247631951285262 0.028836123282550113 -0.030594466599829024 0.030103297919597538 -0.050241720194480116 -0.014161208760732609 0.046762677644586248 -0.0051359277801098606 0.01260870230623265 -0.00466445376874424 0.027833279567856934 -0.0064801738596676432 -0.03419440084411475 -0.06440518252685544 -0.018170689027584907
leaf_weight=409.40817059576511 65.271830216050148 84.489210247993469 46.994491219520569 24.167847618460655 6.8037298768758765 7.5969571322202674 11.414751723408697 54.259095221757889 46.638802170753479 18.982986092567444 29.218969345092773 28.521734058856964 41.661174654960632 5.6768613755702964 353.30653168261051 35.040641829371452 58.143420279026031 235.20710526406765 347.58908735215664 14.799167692661284 541.41366475820541 8.8308763206005079 427.84468926489353 432.06287254393101 167.13497199118137 6.9761242717504492 121.18203520774841 33.078552410006523 8.1849640160799009 69.847779288887978
leaf_count=1650 264 356 196 103 29 31 46 221 196 78 120 127 171 23 1429 142 249 1021 1490 60 2227 36 1730 1783 678 28 487 133 33 281
internal_value=-0.000248428 -0.0120493 -0.0150283 0.0113813 0.0353194 0.0101931 0.0120181 0.0158131 0.00364684 -0.0112006 0.00983221 -0.0268598 0.02439 -0.0239428 0.00810529 -0.00997758 0.0219528 -0.0252271 0.0270868 -0.0109204 -0.0103367 -0.00966322 -0.00408638 0.0144155 -0.00226743 -0.00244746 0.00205179 -0.0233913 -0.0162881 -0.0114417
internal_weight=3741.75 1857.21 1447.8 1884.54 89.115 1795.42 1568.92 1079.52 489.393 1093.91 636.014 353.895 443.509 325.373 399.945 1046.91 64.9472 319.696 401.848 1011.87 997.072 978.089 436.676 461.282 174.732 226.509 186.454 40.0547 89.4475 81.2625
internal_count=15418 7646 5996 7772 381 7391 6479 4494 1985 4469 2612 1527 1882 1400 1625 4273 278 1377 1711 4131 4071 3993 1766 1903 709 912 751 161 360 327
is_linear=0
shrinkage=0.05


Tree=17
num_leaves=31
num_cat=0
split_feature=5 13 13 9 9 28 13 6 9 10 10 5 14 11 28 18 13 13 14 16 14 3 16 4 24 28 14 28 16 22
split_gain=185.914 21.1743 24.6025 20.9374 15.8017 14.6466 20.458 11.9102 11.8394 13.952 11.6732 11.4028 10.9839 9.74728 9.72343 15.9363 11.1862 9.48015 9.46621 10.7943 15.035 10.4268 9.24485 11.0979 9.12125 8.7506 8.64728 8.47883 9.36596 8.19734
threshold=1.0000000180025095e-35 -13974.999999999998 425.00000000000006 527.00000000000011 -162.49999999999997 -19.099999999999998 15475.000000000002 -2.4999999999999996 -388.49999999999994 -399.49999999999994 527.00000000000011 2.5000000000000004 19125.000000000004 -2.4999999999999996 143.63333333333335 1.0000000180025095e-35 -11024.999999999998 -17324.999999999996 16775.000000000004 5625.0000000000009 13975.000000000002 10.500000000000002 22725.000000000004 -1.4999999999999998 2.5000000000000004 95.450000000000017 2025.0000000000002 89.700000000000003 -8424.9999999999982 -9.4999999999999982
decision_type=2 2 2 2 2 2 2 2 2 2 2 2 2 2 2 2 2 2 2 2 2 2 2 2 2 2 2 2 2 2
left_child=1 -1 4 5 13 29 7 -7 9 -4 -5 17 18 -3 15 16 -6 -9 19 21 -21 -10 23 27 -15 -8 -25 -13 -29 -2
right_child=3 2 8 10 14 6 25 11 12 -11 -12 22 -14 24 -16 -17 -18 -19 -20 20 -22 -23 -24 26 -26 -27 -28 28 -30 -31
leaf_value=-0.0014389974646931997 0.038794546322838894 -0.023346780785217888 0.0095145464780517705 0.07473331895089573 0.014582338296494657 -0.00084684458520112153 0.018822675417721549 0.066825179209444516 -0.017357657505255249 -0.065230099262981941 0.025820607898734301 0.021696186452049501 0.0047837877352110252 -0.051290470725716547 0.028051597541914993 -0.039481925929259525 -0.015922579745714035 0.01017425061529431 -0.034612494650287658 -0.0014225146461703453 0.081079582224955662 -0.00059282073024903733 -0.011443947172590348 0.037298348866280549 -0.010728078820587543 0.00035775589729938103 0.022038296819411031 -0.047376215963013668 0.0059030992185568594 -0.00097302004568513255
leaf_weight=409.36740148067474 13.488731756806372 119.72483251988888 9.2662851661443728 17.298925384879112 34.506485834717751 94.502176105976105 76.804474771022797 7.5313126742839804 362.60619388520718 19.1377132833004 41.366219952702522 68.2941764742136 139.74921181797981 82.984998300671577 12.19515413045883 65.630870029330254 232.82799039781094 379.71653425693512 38.650398254394531 179.18753580749035 5.6977968215942374 124.62038758397102 19.254334211349487 150.31039345264435 16.638277381658554 389.81922620534897 242.77739354968071 10.522832944989203 38.163945004343987 329.65870042145252
leaf_count=1650 55 509 39 76 141 382 314 31 1485 80 179 285 563 378 50 282 979 1568 157 728 23 508 80 648 74 1575 1035 45 162 1337
internal_value=-0.000236454 -0.0114759 -0.0143225 0.0108433 -0.0224677 0.00989601 0.012057 0.0160537 -0.00909102 -0.040846 0.0402438 0.0177962 -0.00803052 -0.0329614 -0.015799 -0.017405 -0.0119851 0.011276 -0.0105501 -0.00916632 0.00112004 -0.0130696 0.0225663 0.0238501 -0.0445161 0.00339701 0.0278735 0.0103305 -0.00561233 0.000590197
internal_weight=3732.3 1852.79 1443.42 1879.51 564.509 1820.84 1477.7 1011.07 878.916 28.404 58.6651 916.571 850.512 219.348 345.161 332.965 267.334 387.248 710.762 672.112 184.885 487.227 529.323 510.069 99.6233 466.624 393.088 116.981 48.6868 343.147
internal_count=15418 7646 5996 7772 2413 7517 6125 4236 3583 119 255 3854 3464 961 1452 1402 1120 1599 2901 2744 751 1993 2255 2175 452 1889 1683 492 207 1392
is_linear=0
shrinkage=0.05


Tree=18
num_leaves=31
num_cat=0
split_feature=9 9 13 13 9 28 6 13 13 18 2 10 13 0 16 21 9 10 1 28 13 3 5 23 10 16 22 16 26 2
split_gain=168.72 18.9135 14.8662 23.9745 19.428 13.1921 12.2907 19.485 16.5114 11.5694 11.5108 11.0296 10.7716 10.2661 10.0276 9.70855 9.47937 12.4347 9.33033 9.13272 9.91569 8.79791 8.74844 9.81163 8.26256 8.12504 8.08539 7.7606 7.40211 7.30508
threshold=51.500000000000007 527.00000000000011 -13974.999999999998 1825.0000000000002 -168.49999999999997 156.45000000000002 -2.4999999999999996 15475.000000000002 3975.0000000000005 1.0000000180025095e-35 5.5000000000000009 527.00000000000011 -13574.999999999998 3.5000000000000004 1475.0000000000002 -1.4999999999999998 -388.49999999999994 -399.49999999999994 5.5000000000000009 -85.708333333333329 2125.0000000000005 6.5000000000000009 2.5000000000000004 -1.0000000180025095e-35 -174.49999999999997 2725.0000000000005 -8.4999999999999982 22725.000000000004 -0.89999999999999991 20.500000000000004
decision_type=2 2 2 2 2 2 2 2 2 2 2 2 2 2 2 2 2 2 2 2 2 2 2 2 2 2 2 2 2 2
left_child=2 6 -1 4 14 9 10 8 12 -6 26 -3 -8 -9 15 -4 17 -5 -10 -12 28 -20 29 24 -24 -16 -2 -25 -21 -14
right_child=1 11 3 16 5 -7 7 13 18 -11 19 -13 22 -15 25 -17 -18 -19 21 20 -22 -23 23 27 -26 -27 -28 -29 -30 -31
leaf_value=-0.0023091492162327482 0.047441844154973205 0.072691418854179554 -0.02667716808637435 0.012468333046982848 -0.010932807572554515 0.030260687678772089 0.032244690674616112 -0.012901336816135079 0.024273280193469658 -0.031192343172621557 0.037424484502190589 0.024708276687276296 0.0023562099123994682 0.0062363327871617427 0.01742935888807897 -0.050754567320157179 -0.0058769942861352856 -0.065025393389388134 0.008527611835484351 -0.044721459320158259 -0.030224656588752188 -0.058970335410753222 0.042737149811125662 0.024845299150479321 0.00070695546168477624 -0.023559272328838206 -0.014883312424255529 -0.024196569116787116 0.01743309544536217 -0.047308484789648136
leaf_weight=413.26709020137787 5.4557577818632117 16.905574828386307 91.273544207215309 7.8734651356935528 350.03826341032982 16.70476371049881 48.23185008764267 85.821016013622284 424.17879335582256 88.2297043800354 24.611520752310753 41.074617341160774 253.40191382169724 381.9588163793087 14.263273403048514 77.346092060208321 739.09140707552433 15.112716302275656 37.350995481014252 5.2385162711143485 17.866257473826408 5.5442897528409949 12.775528892874716 147.27571371197701 138.01730594038963 79.361908450722694 112.64352951943874 8.5342484861612302 55.966770365834236 7.6268996447324744
leaf_count=1666 22 76 390 33 1462 68 198 345 1828 378 99 179 1034 1550 61 354 3009 64 154 21 72 23 52 618 573 344 453 35 226 31
internal_value=-0.000225315 0.0105977 -0.0106933 -0.0130355 -0.0195968 -0.0133491 0.00967844 0.011253 0.0149366 -0.0150113 -0.00133106 0.038699 0.00955998 0.00272525 -0.030436 -0.0377215 -0.00686043 -0.0384814 0.022026 0.010826 0.00254704 -0.000196615 0.00763245 0.0133599 0.00426785 -0.0173149 -0.0120041 0.0221591 0.0121133 0.000905076
internal_weight=3723.04 1830.48 1892.56 1479.3 717.218 454.973 1772.5 1550.72 1082.94 438.268 221.782 57.9802 615.863 467.78 262.245 168.62 762.078 22.9862 467.074 103.683 79.0715 42.8953 567.632 306.603 150.793 93.6252 118.099 155.81 61.2053 261.029
internal_count=15418 7589 7829 6163 3057 1908 7334 6441 4546 1840 893 255 2541 1895 1149 744 3106 97 2005 418 319 177 2343 1278 625 405 475 653 247 1065
is_linear=0
shrinkage=0.05


Tree=19
num_leaves=31
num_cat=0
split_feature=9 9 9 13 13 9 22 13 13 0 10 27 24 9 13 0 11 0 10 1 2 10 26 13 10 14 2 28 7 20
split_gain=152.699 17.416 13.7245 14.803 21.8309 16.98 11.7308 11.163 22.6592 13.2934 10.4601 9.96223 10.7191 9.83121 10.2751 9.26805 9.21513 9.57241 10.6804 9.19703 9.38463 9.1302 8.16414 10.5164 8.10731 8.04809 7.87095 7.8698 8.6491 7.85811
threshold=51.500000000000007 527.00000000000011 -487.49999999999994 -13974.999999999998 1825.0000000000002 -97.499999999999986 -1.0000000180025095e-35 15475.000000000002 4075.0000000000005 4.5000000000000009 527.00000000000011 157.50000000000003 8.5000000000000018 331.50000000000006 -3374.9999999999995 3.5000000000000004 117.50000000000001 8.5000000000000018 299.50000000000006 -1.0000000180025095e-35 5.5000000000000009 -484.49999999999994 -0.44999999999999996 23025.000000000004 -235.49999999999997 -8024.9999999999991 4.5000000000000009 156.45000000000002 4.5000000000000009 6.5000000000000009
decision_type=2 2 2 2 2 2 2 2 2 2 2 2 2 2 2 2 2 2 2 2 2 2 2 2 2 2 2 2 2 2
left_child=2 7 21 -4 5 6 -5 8 9 13 -3 12 -8 14 -2 -9 17 -10 26 20 -11 -1 -6 24 -24 -18 -19 28 -7 -27
right_child=1 10 3 4 22 27 11 15 16 19 -12 -13 -14 -15 -16 -17 25 18 -20 -21 -22 -23 23 -25 -26 29 -28 -29 -30 -31
leaf_value=-0.017611165687301159 0.027540247257130269 0.070831830808774948 -0.0011539185544268036 -0.01687170514082019 -0.015301792299759302 -0.0092723016863052315 -0.038264648003598606 -0.012256257071972225 0.034741780047621261 0.00073624099723499628 0.023643388702811796 0.037092574084441776 0.013912811061315472 0.045299731615335077 0.0019608149951738439 0.0059284071108784116 -0.044650355397489724 -0.019139446060740493 -0.026110095731914279 0.0014135801643947482 0.041079631534950832 -0.075299163976506475 0.043900793479813502 -0.038616030471655488 -0.00264551385804141 0.01654879596723742 0.032588613209459945 0.030102112948833162 -0.064927815411966877 -0.047904976049298865
leaf_weight=14.310824736952783 71.651600152254105 16.492414981126785 400.76946899294853 222.29288041591644 181.92463913559914 268.69411005079746 181.26017282903194 85.821080207824707 153.11859600245953 26.98028028011322 40.785875141620636 4.8551173955202094 10.408365100622175 28.760401323437691 86.842200621962547 381.71449089050293 5.7343398183584204 9.0570306330919248 14.481568843126295 590.05163812637329 30.951664820313454 13.171657443046568 9.5195621550083143 20.151534825563431 541.34976527094841 239.38553602993488 39.105662479996681 12.335273310542105 7.1668182164430609 4.8242139220237723
leaf_count=60 295 76 1615 955 752 1120 809 345 672 109 179 20 44 122 361 1550 24 39 62 2417 127 56 39 82 2197 1025 166 50 30 20
internal_value=-0.000214567 0.0100958 -0.0101839 -0.00966583 -0.0120024 -0.018312 -0.0247398 0.00921691 0.0115983 0.00667098 0.0372306 -0.0336395 -0.0354312 0.018405 0.0135247 0.00259042 0.0204355 0.0280055 0.0115404 0.00328007 0.0222908 -0.0452596 -0.0060777 -0.00313895 -0.00184115 0.0139007 0.0228611 -0.00897104 -0.0107182 0.0152756
internal_weight=3713.97 1825.76 1888.21 1860.73 1459.96 707.013 418.817 1768.48 1300.94 835.238 57.2783 196.524 191.669 187.254 158.494 467.536 465.707 215.763 62.6443 647.984 57.9319 27.4825 752.946 571.021 550.869 249.944 48.1627 288.196 275.861 244.21
internal_count=15418 7589 7829 7713 6098 3028 1828 7334 5439 3431 255 873 853 778 656 1895 2008 939 267 2653 236 116 3070 2318 2236 1069 205 1200 1150 1045
is_linear=0
shrinkage=0.05


Tree=20
num_leaves=31
num_cat=0
split_feature=9 13 13 1 15 13 3 2 1 5 15 21 10 9 13 14 13 3 15 21 1 9 0 9 23 0 3 15 18 3
split_gain=136.956 22.856 27.387 19.4645 22.2885 15.8386 13.3407 11.8895 13.5576 11.1858 13.4048 12.5113 10.5119 10.3412 9.78542 9.44054 10.5981 10.8199 9.27305 9.07824 8.95566 8.94921 8.66557 8.53837 10.8546 11.9326 8.94171 8.67562 8.47147 10.2696
threshold=-1.0000000180025095e-35 -13124.999999999998 1825.0000000000002 1.0000000180025095e-35 2975.0000000000005 12375.000000000002 3.5000000000000004 7.5000000000000009 -1.0000000180025095e-35 -1.4999999999999998 -4624.9999999999991 -2.4999999999999996 353.50000000000006 349.50000000000006 17025.000000000004 -5574.9999999999991 14275.000000000002 6.5000000000000009 8625.0000000000018 3.5000000000000004 -1.0000000180025095e-35 527.00000000000011 5.5000000000000009 267.50000000000006 1.0000000180025095e-35 8.5000000000000018 2.5000000000000004 8075.0000000000009 3.5000000000000004 9.5000000000000018
decision_type=2 2 2 2 2 2 2 2 2 2 2 2 2 2 2 2 2 2 2 2 2 2 2 2 2 2 2 2 2 2
left_child=1 -1 6 7 15 21 20 14 -9 10 11 -4 13 -10 19 22 17 -17 -8 -2 -3 28 -5 24 25 -7 -25 -26 29 -6
right_child=3 2 9 4 5 23 18 8 12 -11 -12 -13 -14 -15 -16 16 -18 -19 -20 -21 -22 -23 -24 26 27 -27 -28 -29 -30 -31
leaf_value=-0.00070257117036551069 -0.0021548331395297099 -0.041805588110942725 -0.0081111582203284276 0.051329932303892795 0.018090148832143115 -0.079038385401589181 -0.01518946607287055 0.033383103484071884 -0.0033597660512352232 0.0012694017374577276 -0.0082829239720579647 -0.052080390130904479 0.042019920803648927 0.034404849352135981 -0.043852803759192267 0.029132545949435731 0.0086423125139465998 0.01065545094334094 -0.036649801180395014 0.048393602752655099 -0.0098181966716098766 0.049797480296351462 0.01679389426749596 0.019704032146103303 -0.037834166165332264 -0.0085387418100008345 -0.0064716348156532572 0.0047244571108612842 -0.0037663047798148623 -0.0081655767278471063
leaf_weight=410.74309748411179 476.27021560072899 112.42234125733376 28.648352861404419 39.697199776768684 246.58947110176086 12.772314101457598 397.20756921172142 53.246215611696243 152.51213084161282 243.47692008316517 338.81588859856129 37.169576868414879 17.286519706249237 20.572873905301094 13.83825074136257 212.31515294313431 248.54305279254913 126.4008804410696 57.642126023769379 9.0511152297258359 27.169943019747734 14.71475265920162 33.483178302645683 49.465744271874428 16.198736250400543 11.323096066713331 95.837792381644249 45.921955347061157 85.683903217315674 43.86885379254818
leaf_count=1659 1934 520 119 179 1052 52 1691 219 618 984 1391 155 73 85 56 923 1010 544 253 37 117 68 144 202 66 46 393 186 352 185
internal_value=-0.000249355 -0.0109277 -0.0143077 0.00846631 0.0121959 0.00540673 -0.0220586 0.00202509 0.0110801 -0.00719861 -0.012294 -0.032942 0.004842 0.00112893 -0.00239425 0.0185938 0.0164836 0.0222373 -0.0179091 -0.00121212 -0.0355796 0.0115456 0.0355282 -0.00495703 -0.0174225 -0.0459087 0.00243936 -0.00637323 0.0100492 0.0141247
internal_weight=3678.89 1653.3 1242.55 2025.59 1282.82 622.377 594.442 742.777 243.618 648.111 404.634 65.8179 190.372 173.085 499.16 660.439 587.259 338.716 454.85 485.321 139.592 390.857 73.1804 231.52 86.2161 24.0954 145.304 62.1207 376.142 290.458
internal_count=15313 6889 5230 8424 5402 2602 2581 3022 995 2649 1665 274 776 703 2027 2800 2477 1467 1944 1971 637 1657 323 945 350 98 595 252 1589 1237
is_linear=0
shrinkage=0.05


Tree=21
num_leaves=31
num_cat=0
split_feature=9 1 15 27 10 1 10 9 9 0 9 28 3 5 28 18 25 9 15 4 10 9 15 19 27 3 9 2 2 19
split_gain=123.966 17.6795 20.2863 13.2977 14.3801 11.8191 17.3632 11.4185 10.9634 10.6447 10.1883 9.98989 10.4266 15.3176 9.92512 9.5125 9.37859 8.90959 8.51161 9.67836 10.9736 8.89425 8.86261 9.92346 10.4907 9.28805 8.58219 11.067 8.14832 7.74146
threshold=-1.0000000180025095e-35 1.0000000180025095e-35 2975.0000000000005 220.83333333333334 151.50000000000003 -1.0000000180025095e-35 200.50000000000003 122.50000000000001 527.00000000000011 8.5000000000000018 223.50000000000003 43.63333333333334 9.5000000000000018 3.5000000000000004 -209.09999999999997 7.5000000000000009 7.8333333333333348 480.50000000000006 1.0000000180025095e-35 -4.4999999999999991 -67.499999999999986 -58.499999999999993 5525.0000000000009 2.5000000000000004 -191.16666666666666 3.5000000000000004 -177.49999999999997 11.500000000000002 1.0000000180025095e-35 1.0000000180025095e-35
decision_type=2 2 2 2 2 2 2 2 2 2 2 2 2 2 2 2 2 2 2 2 2 2 2 2 2 2 2 2 2 2
left_child=9 3 16 4 14 7 -7 -6 11 18 29 -4 -13 -14 -2 -11 -3 -16 19 20 -1 -21 25 -24 -25 28 -27 -28 -20 -8
right_child=1 2 8 -5 5 6 10 -9 -10 15 -12 12 13 -15 17 -17 -18 -19 22 21 -22 -23 23 24 -26 26 27 -29 -30 -31
leaf_value=0.004795427590338526 0.042768637389626864 0.018246963768767478 0.034574229426609607 0.023965992132356402 -0.025803706342872258 -0.075363817306075359 -0.015959826839413983 0.044815041109567202 0.036370793167342493 -0.0053387305564907171 -0.055774228188279901 0.004737573364401412 -0.039152477314454474 0.01088470813829695 0.00078147685250150572 0.064143763686803607 -0.05373324309047324 0.069040338058570877 0.050727126391154204 -0.024637009900274585 -0.025198647577841512 -0.0052296527515690513 -0.019873048484282341 0.063996037960287175 -0.0042350451463042662 -0.019836778587003275 -0.0060509119133524136 0.036595793047117874 0.0055935623663550052 0.049537555456371507
leaf_weight=85.734214872121811 14.811608880758284 652.88585802912712 25.147931978106499 62.657808288931847 12.115880116820337 17.612906068563461 12.149936825037008 10.850265532732008 26.897080972790718 541.63609655201435 9.112058296799658 507.22128403186798 34.525826930999756 27.459225922822952 591.06930105388165 4.9710897803306571 4.5569292157888404 4.819551169872283 11.954459697008131 348.47061547636986 47.328424066305161 71.077513054013252 223.7084244787693 6.2221691012382498 59.547711387276649 84.540513172745705 83.846696138381958 18.584117472171783 61.172811627388 7.1759757548570624
leaf_count=356 60 2780 105 263 49 71 49 45 122 2226 37 2117 142 116 2398 20 20 21 49 1501 196 297 938 26 248 355 347 76 254 29
internal_value=-0.000237374 0.00806284 0.0116261 0.00192541 -0.00010634 -0.0217396 -0.0363516 0.00755984 0.00514743 -0.0104117 -0.0121896 0.00373444 0.00237192 -0.0169861 0.0023385 -0.00470683 0.017748 0.00133355 -0.0132408 -0.0176226 -0.00587302 -0.0213491 -0.00883485 -0.0148535 0.00221997 -0.00213638 -0.0080454 0.00168652 0.0129718 0.00836025
internal_weight=3669.86 2021.07 1278.69 742.375 679.717 69.017 46.0509 22.9661 621.251 1648.79 28.438 594.354 569.206 61.9851 610.7 546.607 657.443 595.889 1102.19 552.611 133.063 419.548 549.577 289.478 65.7699 260.099 186.971 102.431 73.1273 19.3259
internal_count=15313 8424 5402 3022 2759 280 186 94 2602 6889 115 2480 2375 258 2479 2246 2800 2419 4643 2350 552 1798 2293 1212 274 1081 778 423 303 78
is_linear=0
shrinkage=0.05


Tree=22
num_leaves=31
num_cat=0
split_feature=9 13 13 5 6 3 13 0 13 13 0 5 15 21 15 16 10 9 15 10 9 9 20 9 3 0 2 24 10 26
split_gain=112.13 20.9048 24.9863 13.6847 14.1161 12.2759 12.0233 16.6204 12.1653 11.6853 10.3993 10.0035 11.916 11.4481 9.62316 8.68706 8.98153 12.6879 8.51185 8.3968 8.22847 8.09504 8.00013 11.0573 12.5603 7.84826 7.62394 8.01796 7.61536 7.46175
threshold=-1.0000000180025095e-35 -13124.999999999998 1825.0000000000002 2.5000000000000004 2.5000000000000004 3.5000000000000004 14275.000000000002 4.5000000000000009 -1324.9999999999998 22625.000000000004 3.5000000000000004 -1.4999999999999998 -4624.9999999999991 -2.4999999999999996 -3624.9999999999995 21125.000000000004 346.50000000000006 468.50000000000006 8625.0000000000018 -318.49999999999994 339.50000000000006 -159.49999999999997 1.5000000000000002 -358.49999999999994 2.5000000000000004 3.5000000000000004 2.5000000000000004 -3.4999999999999996 -130.49999999999997 -2.2916666666666665
decision_type=2 2 2 2 2 2 2 2 2 2 2 2 2 2 2 2 2 2 2 2 2 2 2 2 2 2 2 2 2 2
left_child=1 22 5 4 -2 21 7 20 15 25 14 12 13 -4 -8 16 17 19 29 -9 28 -3 23 -1 -25 -6 -21 -28 -5 -7
right_child=3 2 11 6 9 18 10 8 -10 -11 -12 -13 -14 -15 -16 -17 -18 -19 -20 26 -22 -23 -24 24 -26 -27 27 -29 -30 -31
leaf_value=-0.014557926244412395 -0.00094271718272347777 -0.047830413609391949 -0.0070378185607896694 -0.0019906464338000722 -0.010565980903393248 -0.027862688958255239 0.032435338170514139 -0.044037956174519395 0.015233473158546468 -0.022823459847509223 0.0084171807968597117 0.0016332403642720446 -0.0074310468077309387 -0.049285514656769738 -0.018194236044123398 0.038695401292295269 -0.050153102782808504 0.076667166400137099 -0.034721908304296958 -0.033282708177230523 0.045896381421526494 -0.023260859492087269 -0.016080637134642129 -0.031052223905425988 0.010501019063981144 0.019793112303662083 -0.02624290143638662 0.013731921299548221 0.029340312838317818 -0.010613230459960347
leaf_weight=71.646197825670242 634.63041311502457 58.347501054406166 28.525677859783173 25.868599161505699 23.836949169635773 78.174257069826126 10.814731419086455 12.441543981432913 439.57746805250645 20.58757558465004 328.88057993352413 243.27501749992371 337.85418100655079 36.619583174586296 71.008221805095673 11.94845277070999 10.514120787382124 4.9229876697063437 56.851769804954529 14.784614279866217 51.921059474349022 78.801560997962952 66.005970075726509 19.593751639127731 253.06891964375973 199.08329465985298 15.632654786109915 63.485373541712768 77.497896105051041 316.61540551483631
leaf_count=290 2591 284 119 106 100 336 44 50 1889 83 1354 984 1391 155 288 49 46 22 253 60 236 353 267 81 1021 834 64 261 347 1355
internal_value=-0.000225868 -0.0099129 -0.0131613 0.00767467 0.00298411 -0.0206121 0.01129 0.0151464 0.0112162 0.0132182 0.00444867 -0.00637323 -0.0112064 -0.0307862 -0.0115024 -0.00198891 -0.00598061 -0.00180656 -0.0166337 -0.00543934 0.0296566 -0.0337135 -0.000134984 0.00292189 0.00751497 0.0165468 -0.000325252 0.00583344 0.0214994 -0.0140289
internal_weight=3662.82 1645.38 1235.06 2017.44 878.138 588.79 1139.3 728.595 573.307 243.508 410.704 646.274 402.999 65.1453 81.823 133.73 121.781 111.267 451.641 106.344 155.288 137.149 410.315 344.309 272.663 222.92 93.9026 79.118 103.366 394.79
internal_count=15313 6889 5230 8424 3608 2581 4816 3130 2441 1017 1686 2649 1665 274 332 552 503 457 1944 435 689 637 1659 1392 1102 934 385 325 453 1691
is_linear=0
shrinkage=0.05


Tree=23
num_leaves=31
num_cat=0
split_feature=9 13 13 1 15 13 27 17 3 10 12 10 22 11 28 27 14 21 1 15 11 18 28 14 13 3 0 12 5 15
split_gain=101.493 18.9903 22.8599 15.1919 18.3537 13.8276 11.7021 15.4867 11.0582 10.9652 11.74 10.7435 10.7533 9.43042 9.24955 9.80899 10.3489 12.534 9.00741 8.85902 8.82325 9.42632 10.0037 8.72684 9.03109 9.90711 8.20013 8.06654 7.85673 12.5062
threshold=-1.0000000180025095e-35 -13124.999999999998 1525.0000000000002 1.0000000180025095e-35 2975.0000000000005 12375.000000000002 220.83333333333334 1.0000000180025095e-35 3.5000000000000004 227.50000000000003 257.50000000000006 308.50000000000006 2.5000000000000004 70.500000000000014 43.63333333333334 174.16666666666671 875.00000000000011 -1.4999999999999998 -1.0000000180025095e-35 10825.000000000002 -131.49999999999997 3.5000000000000004 89.700000000000003 -5574.9999999999991 14275.000000000002 6.5000000000000009 5.5000000000000009 300.50000000000006 -1.4999999999999998 -8124.9999999999991
decision_type=2 2 2 2 2 2 2 2 2 2 2 2 2 2 2 2 2 2 2 2 2 2 2 2 2 2 2 2 2 2
left_child=1 -1 8 6 23 14 7 11 18 10 -9 12 -2 -12 -6 16 -16 -18 -3 -10 -19 22 -22 26 25 -25 -5 -23 29 -4
right_child=3 2 28 4 5 -7 -8 9 19 -11 13 -13 -14 -15 15 -17 17 20 -20 -21 21 27 -24 24 -26 -27 -28 -29 -30 -31
leaf_value=-0.00012874144074155968 -9.6909101438184245e-05 -0.039067876017612135 -0.032608238013526879 0.048592838981278245 0.042202849204724689 -0.0052261930922814538 0.022369203693643428 -0.054877258012348717 -0.01375066683961928 0.0122093506691794 0.056776166808055854 -0.061100836167590961 0.018482141500924334 -0.035188217275024969 0.024124815898060398 0.01546221743830509 -0.055659133061840504 -0.052217489282364027 -0.0052363459885808542 -0.037767505090464622 -0.030266890458112067 0.0012563846172937909 0.021344705119932125 0.026486459610110182 0.0072109619213473397 0.0086832658693307627 0.014667144611742995 -0.045797312942758919 0.00061108710511921017 -0.0071752599648147149
leaf_weight=410.20954988896847 525.17073264718056 106.13991007208824 55.705743163824081 38.589122667908669 21.365300953388214 231.11931774020195 62.236499935388565 30.120261654257774 383.8133021146059 14.311933711171148 4.9327429383993131 6.6784720867872229 91.442671105265617 6.4101179987192154 32.405859738588333 208.96992361545563 12.230061799287794 8.2311482429504377 24.150789618492126 42.664907246828079 11.274950489401816 21.576088830828667 56.120962917804718 208.49513658881187 247.74961350858212 124.98831824958324 33.08067961037159 15.762500718235968 252.79676002264023 365.3603795170784
leaf_count=1659 2132 509 236 179 90 945 263 122 1654 58 20 27 374 26 138 909 51 35 106 193 47 88 235 923 1010 544 144 64 1023 1509
internal_value=-0.000215203 -0.00944547 -0.012551 0.00730761 0.0106234 0.00445526 0.00161824 -0.000283586 -0.0200481 -0.0255253 -0.0385503 0.00197516 0.00265833 0.00480493 0.0102231 0.00835923 -0.0010589 -0.00757749 -0.0327968 -0.0161533 -0.002372 0.00154539 0.0127104 0.0164718 0.0144419 0.0198139 0.0329337 -0.0186074 -0.0063567 -0.01054
internal_weight=3654.1 1640.84 1230.63 2013.26 1271.96 619.056 741.303 679.067 556.769 55.7751 41.4631 623.292 616.613 11.3429 387.937 366.571 157.602 125.196 130.291 426.478 112.966 104.735 67.3959 652.903 581.233 333.483 71.6698 37.3386 673.863 421.066
internal_count=15313 6889 5230 8424 5402 2602 3022 2759 2462 226 168 2533 2506 46 1657 1567 658 520 615 1847 469 434 282 2800 2477 1467 323 152 2768 1745
is_linear=0
shrinkage=0.05


Tree=24
num_leaves=31
num_cat=0
split_feature=9 13 13 1 15 13 27 17 10 10 4 26 15 10 22 26 9 12 26 28 26 5 28 14 13 13 2 0 12 11
split_gain=91.8606 17.2522 20.9894 13.7929 16.7028 12.5176 10.612 13.9996 9.91962 11.4407 9.703 11.1735 10.5771 9.67692 9.72286 8.73879 8.6992 8.68213 8.66275 8.42544 10.229 9.36914 9.83358 8.07539 8.27341 8.43375 10.1007 7.6857 7.67714 7.52917
threshold=-1.0000000180025095e-35 -13124.999999999998 1825.0000000000002 1.0000000180025095e-35 2975.0000000000005 12375.000000000002 220.83333333333334 1.0000000180025095e-35 227.50000000000003 97.500000000000014 -5.4999999999999991 -2.3666666666666663 -20624.999999999996 308.50000000000006 2.5000000000000004 -0.63333333333333319 -71.499999999999986 257.50000000000006 3.4500000000000006 43.63333333333334 1.3666666666666669 3.5000000000000004 352.22500000000008 -5574.9999999999991 14275.000000000002 3325.0000000000005 18.500000000000004 5.5000000000000009 300.50000000000006 117.50000000000001
decision_type=2 2 2 2 2 2 2 2 2 2 2 2 2 2 2 2 2 2 2 2 2 2 2 2 2 2 2 2 2 2
left_child=1 -1 10 6 23 19 7 13 9 17 12 -12 -3 14 -2 -4 -13 -9 -17 -6 -21 22 -22 27 25 -25 -27 -5 -18 -10
right_child=3 2 15 4 5 -7 -8 8 29 -11 11 16 -14 -15 -16 18 28 -19 -20 20 21 -23 -24 24 -26 26 -28 -29 -30 -31
leaf_value=-0.00012230541054160821 -9.2063324683700854e-05 0.064920952137762389 -0.016556887683790319 0.047002965176284835 0.040370844339019815 -0.0049621372093594414 0.021345647375339467 -0.030171171190170459 -0.016767198542992707 -0.059602831497192255 -0.039651622834851255 -0.022863439622875081 -0.0091772418501570637 -0.057925356084393191 0.017586062780472658 -0.0016279609310874154 -0.010488904741164623 0.044872382074237584 -0.04641754307202451 -0.013533321498112864 0.0068360394975388386 0.023145114437129907 -0.060197527378318322 0.010450254949264591 0.0068557639020662108 0.028822131133094064 -0.033524561249084033 0.013989965985106965 0.034675308731627275 0.057989274620333334
leaf_weight=410.20532518625259 525.17284849286079 5.0322667062282553 145.09015110135078 37.916939094662666 21.221784234046936 231.24391928315163 61.966800287365913 12.230851963162424 8.873994901776312 23.523502126336098 75.848286032676697 295.77953426539898 112.08668567240238 6.6919492930173865 91.300600931048393 488.57384434342384 82.249453008174896 5.6276687681674948 11.039403542876242 48.058696627616882 203.49889278411865 108.43350653350353 5.62215532362461 155.48958557844162 247.56118378043175 169.31210350990295 6.7554719001054755 32.951221197843552 10.624589458107947 5.4285432994365683
leaf_count=1659 2132 21 610 179 90 945 263 50 36 95 352 1333 478 27 374 1994 352 23 45 203 860 481 23 668 1010 769 30 144 45 22
internal_value=-0.000204816 -0.00899862 -0.0119677 0.00695903 0.0101257 0.00424101 0.00153858 -0.000269454 -0.0242896 -0.0366961 -0.0188547 -0.0220975 -0.00599345 0.00187693 0.00252609 -0.00575465 -0.0186717 -0.00652306 -0.00261763 0.0097425 0.0079647 0.0112182 0.00503386 0.0157215 0.0137719 0.018936 0.02643 0.0316531 -0.00532222 0.0116067
internal_weight=3645.41 1636.53 1226.32 2008.88 1268.07 618.079 740.817 678.85 55.6846 41.382 581.621 464.502 117.119 623.165 616.473 644.703 388.654 17.8585 499.613 386.835 365.613 317.555 209.121 649.987 579.118 331.557 176.068 70.8682 92.874 14.3025
internal_count=15313 6889 5230 8424 5402 2602 3022 2759 226 168 2581 2082 499 2533 2506 2649 1730 73 2039 1657 1567 1364 883 2800 2477 1467 799 323 397 58
is_linear=0
shrinkage=0.05


Tree=25
num_leaves=31
num_cat=0
split_feature=5 5 10 25 13 10 13 5 14 5 2 26 0 13 2 27 22 6 9 13 28 10 3 14 8 2 13 9 27 13
split_gain=98.8649 18.3481 14.8943 14.1856 16.0866 14.1359 19.4783 17.668 16.6915 14.5342 12.281 11.0402 10.6673 10.0814 9.87439 9.81907 9.81187 12.1384 16.4361 9.1316 8.83629 8.80245 9.59755 8.20529 8.18802 8.13741 9.02144 8.02257 7.89081 7.56359
threshold=1.5000000000000002 5.5000000000000009 362.50000000000006 -0.58333333333333315 17325.000000000004 203.50000000000003 -12224.999999999998 -2.4999999999999996 4325.0000000000009 -3.4999999999999996 6.5000000000000009 1.9000000000000001 4.5000000000000009 -6824.9999999999991 17.500000000000004 244.50000000000003 -1.4999999999999998 -1.4999999999999998 -174.49999999999997 9125.0000000000018 185.10000000000002 173.50000000000003 3.5000000000000004 6075.0000000000009 4.5000000000000009 6.5000000000000009 21025.000000000004 233.50000000000003 438.33333333333343 -11024.999999999998
decision_type=2 2 2 2 2 2 2 2 2 2 2 2 2 2 2 2 2 2 2 2 2 2 2 2 2 2 2 2 2 2
left_child=5 3 -3 10 12 6 8 11 -1 -7 -2 21 14 -11 15 -5 -10 -18 -19 -14 23 22 -8 -21 -15 29 -27 -16 -4 -9
right_child=1 2 28 4 -6 9 7 25 16 13 -12 -13 19 24 27 -17 17 18 -20 20 -22 -23 -24 -25 -26 26 -28 -29 -30 -31
leaf_value=0.0032652975460582948 -0.017036130518532807 0.067523075048571982 -0.0096123255785297672 0.033721434879646933 0.0014786636870864455 -0.02978743398270613 -0.044532572683420979 0.022285966208556718 0.0062773582996659963 0.072650220695336692 0.013659190360307355 0.040986991524104885 0.0084161487538508429 0.0051113118262731752 -0.059440531435001012 0.0092588197518043511 -0.055460068372577512 -0.065364413642736804 0.045311758726957863 0.044046088012967666 0.0047532016563582189 0.013244502998868339 -0.021648234385246823 0.00034687535614640291 -0.021311492752093781 -0.0015622091629650084 -0.045988907886690029 0.012714523389891817 0.031166295792776806 -0.013646588813201757
leaf_weight=411.36953258514404 94.898018553853035 22.403078615665436 16.589356154203415 138.44368615746498 393.22863087058067 34.870036467909813 58.533771321177483 15.04692383110523 18.1975367218256 5.2587660104036322 49.626685664057732 6.5704385638236991 636.37034568190575 359.74166421592236 6.0738830417394665 58.293109759688377 29.765739962458611 5.5920183509588233 8.3836528360843641 53.393159210681915 36.828812420368195 14.597697138786314 210.88310608267784 13.447502866387365 31.92146959900856 344.7310411632061 11.818633437156675 10.532303482294081 41.639463409781456 548.37547880411148
leaf_count=1660 382 105 73 612 1595 148 289 65 75 22 201 27 2702 1476 25 263 127 24 35 243 158 62 929 59 130 1431 48 46 189 2323
internal_value=0.000147911 0.00964647 0.0328779 0.00839025 0.00998792 -0.00690878 -0.0089784 -0.012341 -0.000378135 0.00116218 -0.00649602 -0.0230888 0.0134976 0.00388114 0.023348 0.0264732 -0.0245761 -0.0374119 0.00102743 0.0106579 0.0244188 -0.0245712 -0.0266201 0.0352544 0.00295779 -0.00894613 -0.00303483 -0.0136769 0.0195485 -0.012687
internal_weight=3687.43 1571.77 80.6319 1491.14 1346.61 2115.66 1683.87 1210.56 473.308 431.792 144.525 290.585 953.383 396.922 213.343 196.737 61.9389 43.7414 13.9757 740.04 103.669 284.015 269.417 66.8407 391.663 919.972 356.55 16.6062 58.2288 563.422
internal_count=15524 6653 367 6286 5703 8871 7095 5174 1921 1776 583 1307 4108 1628 946 875 261 186 59 3162 460 1280 1218 302 1606 3867 1479 71 262 2388
is_linear=0
shrinkage=0.05


Tree=26
num_leaves=31
num_cat=0
split_feature=5 5 10 5 25 13 2 13 14 2 9 10 9 14 0 13 2 13 13 11 25 1 11 17 13 11 10 2 17 9
split_gain=89.4888 16.891 14.0816 13.053 12.842 14.6253 12.7727 18.5436 13.6305 11.0825 10.4022 13.3061 10.3075 10.5334 9.77923 9.12871 8.99691 8.84313 10.0197 14.5061 11.1533 8.52627 10.8908 9.9597 8.40677 15.1909 10.3083 13.2661 8.71253 8.46353
threshold=1.5000000000000002 5.5000000000000009 362.50000000000006 -7.4999999999999991 -0.58333333333333315 17325.000000000004 1.5000000000000002 -11024.999999999998 3125.0000000000005 6.5000000000000009 -61.499999999999993 223.50000000000003 -66.499999999999986 26425.000000000004 4.5000000000000009 19275.000000000004 17.500000000000004 -14724.999999999998 625.00000000000011 -8.4999999999999982 1.5833333333333337 1.5000000000000002 446.50000000000006 2.5000000000000004 3975.0000000000005 304.50000000000006 293.50000000000006 7.5000000000000009 5.5000000000000009 261.50000000000006
decision_type=2 2 2 2 2 2 2 2 2 2 2 2 2 2 2 2 2 2 2 2 2 2 2 2 2 2 2 2 2 2
left_child=3 4 -3 -1 9 14 7 8 -5 -2 12 15 13 17 16 -12 -6 -8 19 -19 -21 23 -23 -13 -16 28 27 -27 -26 -30
right_child=1 2 -4 6 5 -7 10 -9 -10 -11 11 21 -14 -15 24 -17 -18 18 -20 20 -22 22 -24 -25 25 26 -28 -29 29 -31
leaf_value=-0.07085474162382345 -0.016176282028232479 0.065817004103763871 0.01870132373353112 0.0046450553492654815 0.025345561321973339 0.0014049266338981587 0.0013036130368608686 -0.022108950927443763 -0.043101722601284066 0.01299103437978813 -0.0016786549407317157 0.013392137073157097 -0.042740814807532647 0.032836229576593191 0.005344722432870941 -0.030838951489144645 -0.012982659457839274 -0.0070924766619937605 -0.0056900057161003229 -0.033489641241337041 0.03186310974098331 0.0046489248888912614 -0.073792173527934796 0.050684620525123153 0.024196053949149133 0.0083173224835304867 0.018201718495840048 -0.046079500194348651 0.015057686299001794 -0.06522085075365075
leaf_weight=7.8688961267471305 94.943929359316826 21.848708644509315 57.841787338256836 140.12115164101124 195.25973491370678 393.17518477141857 226.6119000762701 267.00369118154049 16.732204377651215 49.571563705801964 452.71004109084606 74.874191164970398 20.281550377607346 16.537235274910927 407.30512833595276 28.53037029504776 16.613427966833115 152.54675000905991 502.5212145447731 120.49060089886189 6.9025117754936209 49.481694027781487 4.8595871180295935 23.530226200819016 239.9839813709259 22.423707783222198 32.227537721395493 22.408979818224907 8.2811225503683072 5.4398832768201819
leaf_count=35 382 105 262 569 875 1595 914 1191 73 201 1857 306 84 67 1697 116 71 667 2080 561 29 207 20 95 1072 97 143 96 34 23
internal_value=0.000140953 0.00919245 0.031619 -0.00657746 0.00799109 0.00951492 -0.00633704 -0.0140932 -0.000448293 -0.00617134 -0.00438005 0.000673505 -0.00744336 -0.00674535 0.0128716 -0.00340743 0.0223402 -0.00739403 -0.009913 -0.0174937 -0.0299486 0.0135309 -0.00236584 0.0223094 0.0101535 0.0160751 -0.0033674 -0.0188722 0.0219805 -0.0167699
internal_weight=3678.93 1567.32 79.6905 2111.6 1487.63 1343.12 2103.73 423.857 156.853 144.515 1679.88 633.986 1045.89 1025.61 949.944 481.24 211.873 1009.07 782.461 279.94 127.393 152.746 54.3413 98.4044 738.07 330.765 77.0602 44.8327 253.705 13.721
internal_count=15524 6653 367 8871 6286 5703 8836 1833 642 583 7003 2601 4402 4318 4108 1973 946 4251 3337 1257 590 628 227 401 3162 1465 336 193 1129 57
is_linear=0
shrinkage=0.05


Tree=27
num_leaves=31
num_cat=0
split_feature=5 5 10 5 25 13 2 13 7 2 9 10 9 14 0 14 3 13 2 28 22 13 14 24 28 10 12 13 28 1
split_gain=81.0106 15.5415 13.3484 12.1111 11.6271 13.3011 11.6109 16.9011 14.8642 10.0023 9.4194 12.0152 9.39019 9.50114 8.95651 8.33789 9.69082 8.26965 8.20478 8.20847 9.32727 8.86816 8.1648 9.5854 8.84636 8.3574 8.05793 8.05769 7.80288 7.69759
threshold=1.5000000000000002 5.5000000000000009 362.50000000000006 -7.4999999999999991 -0.58333333333333315 17325.000000000004 1.5000000000000002 -11024.999999999998 1.5000000000000002 6.5000000000000009 -61.499999999999993 223.50000000000003 -66.499999999999986 26425.000000000004 4.5000000000000009 7075.0000000000009 20.500000000000004 19275.000000000004 17.500000000000004 154.30000000000004 -3.4999999999999996 12775.000000000002 19125.000000000004 2.5000000000000004 217.10000000000002 404.50000000000006 399.50000000000006 9125.0000000000018 185.10000000000002 1.5000000000000002
decision_type=2 2 2 2 2 2 2 2 2 2 2 2 2 2 2 2 2 2 2 2 2 2 2 2 2 2 2 2 2 2
left_child=3 4 -3 -1 9 14 7 8 -5 -2 12 17 13 15 18 -8 22 26 19 20 -6 -21 -17 24 25 -24 -12 -16 -29 -13
right_child=1 2 -4 6 5 -7 10 -9 -10 -11 11 29 -14 -15 27 16 -18 -19 -20 21 -22 -23 23 -25 -26 -27 -28 28 -30 -31
leaf_value=-0.068877764270099201 -0.015362301226702877 0.064230283991206283 0.017879077833368319 0.0039118447517447856 0.0091579489259363232 0.0013348583495338782 -0.004366611157870735 -0.021133749523515689 -0.055062865205611614 0.012355943155137598 0.00028246360167616906 0.021203569034999745 -0.040898783616667503 0.031131314804525384 0.0075740525099168496 -0.024008746749191241 0.049003054660317368 -0.029389266427643914 -0.012298958014671896 0.021283882433575842 0.04263362213514902 -0.01737938893008666 -0.015962660893749994 0.019031069357746122 -0.065156394446543461 0.03422257618058807 -0.025299809651373781 0.033034308219021515 0.0042413192553642917 -0.0022489829630168482
leaf_weight=7.6944464296102515 94.97499030828476 21.283411964774132 57.486067563295364 145.21720017492771 28.451083555817604 393.12402337789536 748.45188196003437 265.39990350604057 11.532906383275984 49.515017867088318 419.46194861829281 98.361482709646225 20.138911098241806 16.569858208298683 633.70234276354313 144.81294174492359 5.8205871284008017 28.443039238452911 16.658916220068932 68.965346843004227 77.4606763869524 18.89453412592411 61.927982568740845 28.507212296128273 7.8498283922672263 9.5790093094110471 33.218853935599327 65.554997265338898 36.704468265175819 54.303743109107018
leaf_count=35 382 105 262 590 126 1595 3160 1191 52 201 1722 401 84 67 2702 620 24 116 71 320 348 81 258 118 32 39 135 302 158 227
internal_value=0.000134447 0.00876061 0.0304031 -0.00626275 0.00761185 0.00906541 -0.00603329 -0.0134451 -0.000427226 -0.00586359 -0.004168 0.000639989 -0.00708779 -0.00642252 0.0122766 -0.00704048 -0.0147824 -0.00323798 0.0213732 0.024268 0.033641 0.0129692 -0.0162517 -0.00583754 -0.014771 -0.00923989 -0.00159483 0.00967568 0.0226995 0.0128614
internal_weight=3670.07 1562.78 78.7695 2107.29 1484.01 1339.52 2099.6 422.15 156.75 144.49 1677.45 633.789 1043.66 1023.52 946.392 1006.95 258.498 481.124 210.431 193.772 105.912 87.8599 252.677 107.864 79.3568 71.507 452.681 735.962 102.259 152.665
internal_count=15524 6653 367 8871 6286 5703 8836 1833 642 583 7003 2601 4402 4318 4108 4251 1091 1973 946 875 474 401 1067 447 329 297 1857 3162 460 628
is_linear=0
shrinkage=0.05


Tree=28
num_leaves=31
num_cat=0
split_feature=9 5 10 6 13 18 15 1 5 13 3 1 14 6 13 5 5 0 2 3 17 24 14 13 9 21 16 9 28 14
split_gain=73.4205 16.0363 12.6755 12.2675 12.6729 13.0592 11.2258 14.0182 10.8323 10.7195 10.724 17.5823 11.0159 10.23 12.7901 10.748 10.0257 9.56135 12.9428 11.4652 12.859 10.6203 9.43212 12.866 10.1634 9.22218 9.15165 8.9659 12.3634 8.3846
threshold=31.500000000000004 5.5000000000000009 362.50000000000006 -2.4999999999999996 19575.000000000004 3.5000000000000004 -16124.999999999998 1.0000000180025095e-35 -7.4999999999999991 -12224.999999999998 16.500000000000004 -1.0000000180025095e-35 -9274.9999999999982 3.5000000000000004 -14724.999999999998 -1.4999999999999998 2.5000000000000004 11.500000000000002 11.500000000000002 10.500000000000002 1.5000000000000002 7.5000000000000009 -1824.9999999999998 10375.000000000002 474.50000000000006 1.5000000000000002 2725.0000000000005 -58.499999999999993 193.45000000000002 7525.0000000000009
decision_type=2 2 2 2 2 2 2 2 2 2 2 2 2 2 2 2 2 2 2 2 2 2 2 2 2 2 2 2 2 2
left_child=8 3 -3 -2 5 6 7 -5 -1 -8 16 -12 -13 14 -10 17 -11 19 -19 20 21 29 23 -18 -24 -7 -17 28 -15 -16
right_child=1 2 -4 4 -6 25 9 -9 13 10 11 12 -14 27 15 26 22 18 -20 -21 -22 -23 24 -25 -26 -27 -28 -29 -30 -31
leaf_value=-0.067056766938138584 -0.0047674008257913231 0.062748195031902029 0.017090713704207713 -0.022157156829621161 -0.0013601594615577457 -0.065675051009612961 0.03538952328570507 0.014036464595359519 -0.000279840780112493 0.0069798362841101804 0.056179707456839936 -0.080165513707086258 -0.011883620597088005 0.0037837288025015688 -0.022719127409901306 -0.010436922620932931 0.020191071748826676 0.015213732380636178 -0.04577419554889936 -0.0041656220547254316 -0.00096670488357767932 0.019661097657501025 0.015093780759175097 0.057436338796365144 -0.038255413367830962 -0.0030942488387783831 0.0035614089833439599 0.020020678972121689 -0.031102953122670016 -0.044536391703167477
